{"learner":{"attributes":{"scikit_learn":"{\"_estimator_type\": \"classifier\"}"},"feature_names":["Age","Gender","Person Income","Employee Experience","Loan Amount","Loan interest Rate","Loan percentage","Credit History","Credit Score","Previous Loan","Education_Bachelor","Education_Doctorate","Education_High School","Education_Master","Home Onwership_OTHER","Home Onwership_OWN","Home Onwership_RENT","Loan Intent_EDUCATION","Loan Intent_HOMEIMPROVEMENT","Loan Intent_MEDICAL","Loan Intent_PERSONAL","Loan Intent_VENTURE"],"feature_types":["int","int","int","int","int","float","float","int","int","int","i","i","i","i","i","i","i","i","i","i","i","i"],"gradient_booster":{"model":{"cats":{"enc":[],"feature_segments":[],"sorted_idx":[]},"gbtree_model_param":{"num_parallel_tree":"1","num_trees":"100"},"iteration_indptr":[0,1,2,3,4,5,6,7,8,9,10,11,12,13,14,15,16,17,18,19,20,21,22,23,24,25,26,27,28,29,30,31,32,33,34,35,36,37,38,39,40,41,42,43,44,45,46,47,48,49,50,51,52,53,54,55,56,57,58,59,60,61,62,63,64,65,66,67,68,69,70,71,72,73,74,75,76,77,78,79,80,81,82,83,84,85,86,87,88,89,90,91,92,93,94,95,96,97,98,99,100],"tree_info":[0,0,0,0,0,0,0,0,0,0,0,0,0,0,0,0,0,0,0,0,0,0,0,0,0,0,0,0,0,0,0,0,0,0,0,0,0,0,0,0,0,0,0,0,0,0,0,0,0,0,0,0,0,0,0,0,0,0,0,0,0,0,0,0,0,0,0,0,0,0,0,0,0,0,0,0,0,0,0,0,0,0,0,0,0,0,0,0,0,0,0,0,0,0,0,0,0,0,0,0],"trees":[{"base_weights":[9.577779E-9,1.3234111E0,-3.8559213E-1,7.197713E-1,3.7104776E0,4.458117E-2,2.9166863E0,1.2316042E0,4.4178753E0,3.663626E0,-1.5381142E-1,3.021911E0,1.6472547E-1,5.722295E-1,3.079673E0,3.6743226E0,1.3468904E0,1.5343767E0,4.231528E0,-5.685476E-1,3.338769E-1,1.731901E0,3.2304044E0,8.072166E-1,-3.0508474E-1,1.2521038E0,1.8374857E-2,3.2829974E0,1.0642674E0,1.2521555E0,2.9414635E0,5.023256E-1,-9.7927466E-2,1.3307517E0,4.9846157E-1,-6.029955E-2,-2.7331844E-1,2.297921E-1,-4.9842376E-2,7.6954836E-1,2.8284216E-1,1.0903213E0,8.0197376E-1,-3.366048E-1,4.325967E-1,1.0089548E-1,-3.3645898E-1,1.0621369E0,4.5095143E-1,1.7492668E-9,4.7224337E-1,-2.5276598E-1,9.979303E-1],"categories":[],"categories_nodes":[],"categories_segments":[],"categories_sizes":[],"default_left":[0,0,0,0,0,0,0,0,0,0,0,0,0,0,0,0,0,0,0,0,0,0,0,0,0,0,0,0,0,0,0,0,0,0,0,0,0,0,0,0,0,0,0,0,0,0,0,0,0,0,0,0,0],"id":0,"left_children":[1,3,-1,5,7,9,11,13,15,17,19,21,23,25,27,29,-1,31,33,35,37,39,41,-1,43,-1,45,47,49,-1,51,-1,-1,-1,-1,-1,-1,-1,-1,-1,-1,-1,-1,-1,-1,-1,-1,-1,-1,-1,-1,-1,-1],"loss_changes":[1.0587338E4,4.4161587E3,0E0,3.6324492E3,1.0795293E3,1.3462484E3,1.6620703E2,1.6731808E2,9.166992E0,1.11337524E2,3.5976923E2,1.4352441E2,2.7236824E1,2.0636037E2,1.1364319E1,5.236084E0,0E0,6.302082E0,3.272339E1,1.20813354E2,1.7678922E2,4.972046E1,9.7458984E1,0E0,2.9686966E1,0E0,3.3250496E1,9.550812E0,2.6060386E0,0E0,3.5983902E1,0E0,0E0,0E0,0E0,0E0,0E0,0E0,0E0,0E0,0E0,0E0,0E0,0E0,0E0,0E0,0E0,0E0,0E0,0E0,0E0,0E0,0E0],"parents":[2147483647,0,0,1,1,3,3,4,4,5,5,6,6,7,7,8,8,9,9,10,10,11,11,12,12,13,13,14,14,15,15,17,17,18,18,19,19,20,20,21,21,22,22,24,24,26,26,27,27,28,28,30,30],"right_children":[2,4,-1,6,8,10,12,14,16,18,20,22,24,26,28,30,-1,32,34,36,38,40,42,-1,44,-1,46,48,50,-1,52,-1,-1,-1,-1,-1,-1,-1,-1,-1,-1,-1,-1,-1,-1,-1,-1,-1,-1,-1,-1,-1,-1],"split_conditions":[1E0,2.5E-1,-3.8559213E-1,1.399E1,1E0,2.4979E4,1E0,1.409E1,2.6E-1,1.3E-1,1.101E1,1.44E1,2.4143E4,2.4979E4,1E0,4.8486E4,1.3468904E0,1E0,2.4143E4,7.2324E4,7.2725E4,1.422E1,7.2725E4,8.072166E-1,1.635E1,1.2521038E0,1E0,1E0,1E0,1.2521555E0,4.9038E4,5.023256E-1,-9.7927466E-2,1.3307517E0,4.9846157E-1,-6.029955E-2,-2.7331844E-1,2.297921E-1,-4.9842376E-2,7.6954836E-1,2.8284216E-1,1.0903213E0,8.0197376E-1,-3.366048E-1,4.325967E-1,1.0089548E-1,-3.3645898E-1,1.0621369E0,4.5095143E-1,1.7492668E-9,4.7224337E-1,-2.5276598E-1,9.979303E-1],"split_indices":[9,6,0,5,16,2,15,5,6,6,5,5,2,2,17,2,0,15,2,2,2,5,2,0,5,0,15,20,1,0,2,0,0,0,0,0,0,0,0,0,0,0,0,0,0,0,0,0,0,0,0,0,0],"split_type":[0,0,0,0,0,0,0,0,0,0,0,0,0,0,0,0,0,0,0,0,0,0,0,0,0,0,0,0,0,0,0,0,0,0,0,0,0,0,0,0,0,0,0,0,0,0,0,0,0,0,0,0,0],"sum_hessian":[6.222222E3,3.0656543E3,3.1565679E3,2.447926E3,6.177284E2,1.8732346E3,5.7469135E2,1.3775308E2,4.799753E2,9.644444E1,1.7767902E3,5.534321E2,2.125926E1,1.0249383E2,3.525926E1,4.6839508E1,4.331358E2,2.108642E1,7.5358025E1,9.601235E2,8.166667E2,7.8296295E1,4.751358E2,2.5925927E0,1.8666666E1,1.2790124E1,8.9703705E1,3.145679E1,3.8024693E0,2.506173E1,2.1777779E1,1.9703703E1,1.3827161E0,6.91358E1,6.2222223E0,4.6390125E2,4.9622223E2,4.3780246E2,3.788642E2,3.6987656E1,4.1308643E1,2.7222223E2,2.0291357E2,1.2962963E1,5.703704E0,7.069136E1,1.9012346E1,2.6617285E1,4.839506E0,1.5555556E0,2.2469137E0,1.9012346E0,1.9876543E1],"tree_param":{"num_deleted":"0","num_feature":"22","num_nodes":"53","size_leaf_vector":"1"}},{"base_weights":[-8.014038E-2,7.110694E-1,-3.581459E-1,3.349309E-1,1.4974078E0,-1.5051477E-1,1.1142075E0,6.515106E-1,1.7400143E0,8.967252E-1,-3.9345664E-1,7.31188E-1,1.4440796E0,2.1741807E-1,1.4393895E0,1.196887E0,1.88561E0,6.892327E-1,2.6495044E0,-2.660667E-1,-1.0566608E0,1.3810447E0,4.2759362E-1,1.0219706E0,1.6861504E0,5.699861E-1,-5.792974E-2,1.1168423E0,1.8900833E0,7.582697E-1,1.729449E0,1.6570834E0,5.721348E-1,4.5844796E-1,8.5078664E-2,4.897513E-1,1.0363972E0,-2.0592153E-1,-1.2813621E-2,-3.6296985E-1,-2.453486E-1,5.445907E-1,2.584173E-1,2.2242975E-1,-4.483984E-2,2.0496558E-1,6.2205213E-1,5.3216785E-1,3.3344138E-1,4.54329E-2,-3.3088917E-1,3.9113346E-1,-4.7892835E-2,5.987886E-1,1.7902882E-1,1.6322581E-1,7.224356E-1,5.524844E-1,3.344331E-1,3.9660726E-2,5.0979465E-1],"categories":[],"categories_nodes":[],"categories_segments":[],"categories_sizes":[],"default_left":[0,0,0,0,0,0,0,0,0,0,0,0,0,0,0,0,0,0,0,0,0,0,0,0,0,0,0,0,0,0,0,0,0,0,0,0,0,0,0,0,0,0,0,0,0,0,0,0,0,0,0,0,0,0,0,0,0,0,0,0,0],"id":1,"left_children":[1,3,-1,5,7,9,11,13,15,17,19,21,23,25,27,29,31,33,35,37,39,41,43,45,47,-1,49,51,53,55,57,59,-1,-1,-1,-1,-1,-1,-1,-1,-1,-1,-1,-1,-1,-1,-1,-1,-1,-1,-1,-1,-1,-1,-1,-1,-1,-1,-1,-1,-1],"loss_changes":[5.2799062E3,1.0356658E3,0E0,8.971134E2,2.3143237E2,3.7226526E2,1.13945435E2,8.661916E1,6.733667E1,9.83938E1,1.00024216E2,8.2903076E1,4.814093E1,7.6580414E1,1.0989273E1,4.2786926E1,2.421875E-1,8.387548E1,1.7956528E1,9.359998E1,5.9995728E0,2.8743896E1,5.26114E1,6.2843216E1,1.3589233E1,0E0,3.141604E1,1.33250885E1,3.7585907E0,3.5901047E1,3.771576E0,4.1012115E0,0E0,0E0,0E0,0E0,0E0,0E0,0E0,0E0,0E0,0E0,0E0,0E0,0E0,0E0,0E0,0E0,0E0,0E0,0E0,0E0,0E0,0E0,0E0,0E0,0E0,0E0,0E0,0E0,0E0],"parents":[2147483647,0,0,1,1,3,3,4,4,5,5,6,6,7,7,8,8,9,9,10,10,11,11,12,12,13,13,14,14,15,15,16,16,17,17,18,18,19,19,20,20,21,21,22,22,23,23,24,24,26,26,27,27,28,28,29,29,30,30,31,31],"right_children":[2,4,-1,6,8,10,12,14,16,18,20,22,24,26,28,30,32,34,36,38,40,42,44,46,48,-1,50,52,54,56,58,60,-1,-1,-1,-1,-1,-1,-1,-1,-1,-1,-1,-1,-1,-1,-1,-1,-1,-1,-1,-1,-1,-1,-1,-1,-1,-1,-1,-1,-1],"split_conditions":[1E0,2.1E-1,-3.581459E-1,1.288E1,1E0,4.2173E4,1.484E1,1.361E1,2.5E-1,1E0,1E0,4.8486E4,1E0,2.4979E4,1.607E1,1.368E1,2.6E-1,2.4979E4,3.2698E4,8.9E0,1.101E1,6.49E2,6.65E2,1E0,1E0,5.699861E-1,1E0,1E0,1E0,1E0,1E0,6.91E0,5.721348E-1,4.5844796E-1,8.5078664E-2,4.897513E-1,1.0363972E0,-2.0592153E-1,-1.2813621E-2,-3.6296985E-1,-2.453486E-1,5.445907E-1,2.584173E-1,2.2242975E-1,-4.483984E-2,2.0496558E-1,6.2205213E-1,5.3216785E-1,3.3344138E-1,4.54329E-2,-3.3088917E-1,3.9113346E-1,-4.7892835E-2,5.987886E-1,1.7902882E-1,1.6322581E-1,7.224356E-1,5.524844E-1,3.344331E-1,3.9660726E-2,5.0979465E-1],"split_indices":[9,6,0,5,16,2,5,5,6,18,21,2,16,2,5,5,6,2,2,5,5,8,8,19,17,0,15,17,21,18,20,5,0,0,0,0,0,0,0,0,0,0,0,0,0,0,0,0,0,0,0,0,0,0,0,0,0,0,0,0,0],"split_type":[0,0,0,0,0,0,0,0,0,0,0,0,0,0,0,0,0,0,0,0,0,0,0,0,0,0,0,0,0,0,0,0,0,0,0,0,0,0,0,0,0,0,0,0,0,0,0,0,0,0,0,0,0,0,0,0,0,0,0,0,0],"sum_hessian":[5.9900723E3,3.5022627E3,2.4878096E3,2.3700125E3,1.1322502E3,1.460814E3,9.091984E2,2.5317828E2,8.790719E2,2.7456528E2,1.1862488E3,4.2219638E2,4.8700204E2,1.6406204E2,8.911625E1,1.8778447E2,6.912874E2,2.467486E2,2.7816664E1,9.962816E2,1.8996716E2,1.3330417E2,2.888922E2,1.793987E2,3.0760333E2,2.2243162E1,1.4181888E2,5.3969822E1,3.514643E1,1.0430381E2,8.348067E1,6.61731E1,6.251143E2,7.952011E1,1.6722849E2,1.3629113E1,1.4187551E1,3.4497974E2,6.513018E2,1.1324278E2,7.672439E1,7.126066E1,6.204351E1,1.8693898E2,1.0195321E2,1.3693489E2,4.24638E1,2.6504877E2,4.255458E1,1.1886028E2,2.2958591E1,4.705712E1,6.912701E0,3.1984697E1,3.1617332E0,9.3495926E1,1.0807879E1,6.890987E1,1.4570797E1,1.8946075E0,6.4278496E1],"tree_param":{"num_deleted":"0","num_feature":"22","num_nodes":"61","size_leaf_vector":"1"}},{"base_weights":[-8.316807E-2,5.10572E-1,-3.4056577E-1,2.7906027E-1,1.2872369E0,-5.832306E-3,9.495104E-1,5.012861E-1,1.4808102E0,5.7972336E-1,-2.5900698E-1,1.0557088E0,3.2771316E-1,-1.7219864E-1,8.74728E-1,1.19936E0,4.532806E-1,4.3235043E-1,1.7463824E0,9.1095215E-1,-3.3904132E-1,1.1873912E0,2.9894346E-1,-2.0279932E-1,6.1591554E-1,4.1848704E-1,-5.561208E-1,1.4026846E0,4.3419E-1,1.4567835E0,8.7359923E-1,3.970463E-1,5.491801E-2,2.2347091E-1,6.675294E-1,2.4863873E-2,4.462217E-1,-1.7533726E-1,-3.1435076E-2,4.0334803E-1,1.7614916E-1,-1.1186203E-1,2.1341981E-1,-1.7252034E-1,9.9941805E-2,4.1251045E-2,2.8656086E-1,-2.4806641E-1,2.370966E-2,4.7289506E-1,4.942154E-2,3.6693636E-1,5.103396E-2,1.1299717E-1,4.4813535E-1,-2.7722898E-1,3.106253E-1],"categories":[],"categories_nodes":[],"categories_segments":[],"categories_sizes":[],"default_left":[0,0,0,0,0,0,0,0,0,0,0,0,0,0,0,0,0,0,0,0,0,0,0,0,0,0,0,0,0,0,0,0,0,0,0,0,0,0,0,0,0,0,0,0,0,0,0,0,0,0,0,0,0,0,0,0,0],"id":2,"left_children":[1,3,-1,5,7,9,11,13,15,17,19,21,23,25,27,29,-1,31,33,35,37,39,41,43,45,-1,47,49,51,53,55,-1,-1,-1,-1,-1,-1,-1,-1,-1,-1,-1,-1,-1,-1,-1,-1,-1,-1,-1,-1,-1,-1,-1,-1,-1,-1],"loss_changes":[3.330693E3,6.125308E2,0E0,5.0180658E2,1.1829944E2,2.7362268E2,5.1388E1,3.9420994E1,3.5065918E0,9.5036194E1,1.2096547E2,6.628369E1,1.7820599E1,3.478861E1,2.2791069E1,4.220276E0,0E0,1.0994144E2,2.8141571E1,3.938891E1,6.9317535E1,5.2889954E1,2.8099445E1,8.470173E0,1.2082127E1,0E0,7.997382E0,9.480782E0,1.1519995E1,8.3979034E-1,1.0094385E1,0E0,0E0,0E0,0E0,0E0,0E0,0E0,0E0,0E0,0E0,0E0,0E0,0E0,0E0,0E0,0E0,0E0,0E0,0E0,0E0,0E0,0E0,0E0,0E0,0E0,0E0],"parents":[2147483647,0,0,1,1,3,3,4,4,5,5,6,6,7,7,8,8,9,9,10,10,11,11,12,12,13,13,14,14,15,15,17,17,18,18,19,19,20,20,21,21,22,22,23,23,24,24,26,26,27,27,28,28,29,29,30,30],"right_children":[2,4,-1,6,8,10,12,14,16,18,20,22,24,26,28,30,-1,32,34,36,38,40,42,44,46,-1,48,50,52,54,56,-1,-1,-1,-1,-1,-1,-1,-1,-1,-1,-1,-1,-1,-1,-1,-1,-1,-1,-1,-1,-1,-1,-1,-1,-1,-1],"split_conditions":[1E0,2.5E-1,-3.4056577E-1,1.409E1,1E0,4.8486E4,1E0,1.101E1,2.6E-1,1E0,5.73E2,1E0,1E0,2.6576E4,6.37E2,4.8486E4,4.532806E-1,2.4143E4,1E0,1.082E1,1.101E1,1E0,1E0,2.8E1,1.527E1,4.1848704E-1,3.2E-1,1E0,4.2173E4,6.91E0,4.9038E4,3.970463E-1,5.491801E-2,2.2347091E-1,6.675294E-1,2.4863873E-2,4.462217E-1,-1.7533726E-1,-3.1435076E-2,4.0334803E-1,1.7614916E-1,-1.1186203E-1,2.1341981E-1,-1.7252034E-1,9.9941805E-2,4.1251045E-2,2.8656086E-1,-2.4806641E-1,2.370966E-2,4.7289506E-1,4.942154E-2,3.6693636E-1,5.103396E-2,1.1299717E-1,4.4813535E-1,-2.7722898E-1,3.106253E-1],"split_indices":[9,6,0,5,16,2,17,5,6,18,8,21,16,2,8,2,0,2,16,5,5,20,16,0,5,0,6,21,2,5,2,0,0,0,0,0,0,0,0,0,0,0,0,0,0,0,0,0,0,0,0,0,0,0,0,0,0],"split_type":[0,0,0,0,0,0,0,0,0,0,0,0,0,0,0,0,0,0,0,0,0,0,0,0,0,0,0,0,0,0,0,0,0,0,0,0,0,0,0,0,0,0,0,0,0,0,0,0,0,0,0,0,0,0,0,0,0],"sum_hessian":[5.33021E3,3.4075981E3,1.9226119E3,2.6261445E3,7.8145355E2,1.8436981E3,7.824464E2,1.5513998E2,6.263136E2,5.561396E2,1.2875585E3,6.6770886E2,1.1473757E2,5.5531128E1,9.960886E1,6.45022E1,5.618114E2,4.9498358E2,6.1155975E1,8.177481E1,1.2057837E3,5.682588E2,9.945005E1,4.0494003E1,7.424357E1,1.0408914E1,4.512221E1,4.431552E1,5.5293335E1,3.409088E1,3.0411316E1,1.0725841E2,3.877252E2,2.060535E1,4.0550625E1,3.4031914E1,4.7742897E1,5.8813696E2,6.176468E2,4.4939514E2,1.1886364E2,3.786717E1,6.1582882E1,2.3852678E1,1.6641323E1,3.1388914E1,4.2854656E1,3.1424152E1,1.3698061E1,3.8624744E1,5.6907744E0,1.2955879E1,4.2337456E1,1.4994283E0,3.259145E1,2.1223803E0,2.8288937E1],"tree_param":{"num_deleted":"0","num_feature":"22","num_nodes":"57","size_leaf_vector":"1"}},{"base_weights":[-7.867608E-2,3.8681635E-1,-3.2875913E-1,2.0227487E-1,1.0781255E0,-3.6087394E-2,6.5052146E-1,3.5999316E-1,1.2859617E0,2.0286997E-1,-3.844302E-1,4.2781684E-1,8.9365983E-1,3.9742783E-1,2.2323349E-1,9.658535E-1,3.9707467E-1,3.330647E-1,-5.71285E-1,-8.383075E-1,-2.338524E-1,1.518391E0,3.5671392E-1,6.2415403E-1,1.059295E0,-5.5965513E-1,4.893824E-1,3.9284247E-1,7.067896E-1,2.4403654E-1,4.1589692E-2,3.0086732E-1,-2.5289315E-1,-2.688483E-1,-7.792197E-2,3.2051945E-1,-9.0663835E-2,4.7510368E-1,2.2111669E-1,1.23046726E-1,-3.4041247E-1,1.2771054E-1,3.7506896E-1,3.6058953E-1,2.6300246E-1,-2.5560406E-1,2.9824754E-2,2.0039923E-1,-2.3240481E-1,-1.1123216E-1,2.6974753E-1],"categories":[],"categories_nodes":[],"categories_segments":[],"categories_sizes":[],"default_left":[0,0,0,0,0,0,0,0,0,0,0,0,0,0,0,0,0,0,0,0,0,0,0,0,0,0,0,0,0,0,0,0,0,0,0,0,0,0,0,0,0,0,0,0,0,0,0,0,0,0,0],"id":3,"left_children":[1,3,-1,5,7,9,11,13,15,17,19,21,23,-1,25,27,-1,29,31,33,35,37,39,41,43,45,47,-1,49,-1,-1,-1,-1,-1,-1,-1,-1,-1,-1,-1,-1,-1,-1,-1,-1,-1,-1,-1,-1,-1,-1],"loss_changes":[2.2143308E3,4.0910443E2,0E0,2.7073526E2,1.004021E2,1.3784212E2,4.7248627E1,1.9900875E1,5.0285645E0,9.919739E1,4.5849907E1,3.5208206E1,1.807013E1,0E0,2.8459578E1,4.3067894E0,0E0,7.84878E1,6.1485813E1,5.3721695E0,4.548292E1,2.5654602E-1,3.5066715E1,1.9615307E1,5.680084E0,6.7873917E0,2.3430885E1,0E0,7.7303925E0,0E0,0E0,0E0,0E0,0E0,0E0,0E0,0E0,0E0,0E0,0E0,0E0,0E0,0E0,0E0,0E0,0E0,0E0,0E0,0E0,0E0,0E0],"parents":[2147483647,0,0,1,1,3,3,4,4,5,5,6,6,7,7,8,8,9,9,10,10,11,11,12,12,14,14,15,15,17,17,18,18,19,19,20,20,21,21,22,22,23,23,24,24,25,25,26,26,28,28],"right_children":[2,4,-1,6,8,10,12,14,16,18,20,22,24,-1,26,28,-1,30,32,34,36,38,40,42,44,46,48,-1,50,-1,-1,-1,-1,-1,-1,-1,-1,-1,-1,-1,-1,-1,-1,-1,-1,-1,-1,-1,-1,-1,-1],"split_conditions":[1E0,2.5E-1,-3.2875913E-1,1.35E1,1E0,7.2324E4,1.531E1,2.6576E4,2.6E-1,1E0,8.32E0,2.4143E4,1E0,3.9742783E-1,1.05E1,4.0056E4,3.9707467E-1,6.21E2,2.4979E4,1.7E-1,5.64E2,3.3E1,1E0,1E0,6.49E2,3.2E-1,1E0,3.9284247E-1,1.029E1,2.4403654E-1,4.1589692E-2,3.0086732E-1,-2.5289315E-1,-2.688483E-1,-7.792197E-2,3.2051945E-1,-9.0663835E-2,4.7510368E-1,2.2111669E-1,1.23046726E-1,-3.4041247E-1,1.2771054E-1,3.7506896E-1,3.6058953E-1,2.6300246E-1,-2.5560406E-1,2.9824754E-2,2.0039923E-1,-2.3240481E-1,-1.1123216E-1,2.6974753E-1],"split_indices":[9,6,0,5,16,2,5,2,6,21,5,2,16,0,5,2,0,8,2,6,8,0,15,19,8,6,15,0,5,0,0,0,0,0,0,0,0,0,0,0,0,0,0,0,0,0,0,0,0,0,0],"split_type":[0,0,0,0,0,0,0,0,0,0,0,0,0,0,0,0,0,0,0,0,0,0,0,0,0,0,0,0,0,0,0,0,0,0,0,0,0,0,0,0,0,0,0,0,0,0,0,0,0,0,0],"sum_hessian":[4.6746895E3,3.20748E3,1.4672094E3,2.532685E3,6.7479486E2,1.6540416E3,8.7864343E2,1.5207288E2,5.22722E2,9.813022E2,6.727394E2,4.6003238E2,4.1861105E2,1.7802069E1,1.342708E2,5.7776894E1,4.649451E2,8.405168E2,1.4078546E2,1.6645055E2,5.0628885E2,2.6911394E1,4.3312097E2,1.611582E2,2.5745285E2,3.3785748E1,1.00485054E2,2.309248E1,3.4684414E1,2.4125543E2,5.992613E2,2.0325994E1,1.20459465E2,1.5082042E2,1.563012E1,2.4521955E1,4.817669E2,2.388841E1,3.0229838E0,4.1883786E2,1.4283139E1,1.2364532E2,3.751289E1,1.4140225E2,1.160506E2,2.320116E1,1.0584589E1,8.845739E1,1.2027665E1,5.113497E0,2.9570917E1],"tree_param":{"num_deleted":"0","num_feature":"22","num_nodes":"51","size_leaf_vector":"1"}},{"base_weights":[-7.280217E-2,2.9332757E-1,-3.2057384E-1,1.449447E-1,9.325779E-1,-1.0393057E-1,4.026355E-1,2.594928E-1,1.1667219E0,8.588493E-1,-1.7636512E-1,5.6307834E-1,9.525791E-2,3.991805E-1,-5.3602433E-1,7.932318E-1,3.6484933E-1,-6.2834203E-1,1.1818174E0,-7.04222E-2,-9.0223473E-1,6.0606927E-1,-5.1297385E-1,-4.849845E-2,5.539418E-1,8.9057535E-1,1.6439468E-1,2.8641266E-1,-1.0028942E0,3.4943113E-1,5.459892E-1,-3.5988626E-1,1.12842865E-1,1.24605164E-1,3.7750605E-1,-5.5257767E-3,-3.785889E-1,-3.330877E-1,-1.6887203E-1,2.685356E-1,1.409764E-1,2.7260908E-1,-2.6495174E-1,3.2350478E-1,-3.1819567E-2,5.59156E-2,2.40388E-1,4.052141E-1,1.7640768E-1,-7.943964E-4,3.8823676E-1,-7.28411E-2,2.7517012E-1,-3.5897896E-1,-7.9981424E-4,-8.21395E-2,2.1220021E-1],"categories":[],"categories_nodes":[],"categories_segments":[],"categories_sizes":[],"default_left":[0,0,0,0,0,0,0,0,0,0,0,0,0,0,0,0,0,0,0,0,0,0,0,0,0,0,0,0,0,0,0,0,0,0,0,0,0,0,0,0,0,0,0,0,0,0,0,0,0,0,0,0,0,0,0,0,0],"id":4,"left_children":[1,3,-1,5,7,9,11,13,15,17,19,21,23,25,27,29,-1,31,33,35,37,39,41,43,45,47,49,51,53,-1,55,-1,-1,-1,-1,-1,-1,-1,-1,-1,-1,-1,-1,-1,-1,-1,-1,-1,-1,-1,-1,-1,-1,-1,-1,-1,-1],"loss_changes":[1.5070579E3,2.8656277E2,0E0,1.5744269E2,8.940747E1,8.727557E1,5.9421906E1,1.6682247E1,6.8287354E0,4.28107E1,8.934991E1,3.695781E1,2.7378893E1,1.4463783E1,8.950575E0,4.1603394E0,0E0,9.793163E0,3.7189178E0,6.2913803E1,9.823982E0,2.9574982E1,1.7104935E1,2.0661364E1,8.857105E0,4.8741074E0,1.6405994E1,3.209892E0,2.8283262E0,0E0,4.5893335E0,0E0,0E0,0E0,0E0,0E0,0E0,0E0,0E0,0E0,0E0,0E0,0E0,0E0,0E0,0E0,0E0,0E0,0E0,0E0,0E0,0E0,0E0,0E0,0E0,0E0,0E0],"parents":[2147483647,0,0,1,1,3,3,4,4,5,5,6,6,7,7,8,8,9,9,10,10,11,11,12,12,13,13,14,14,15,15,17,17,18,18,19,19,20,20,21,21,22,22,23,23,24,24,25,25,26,26,27,27,28,28,30,30],"right_children":[2,4,-1,6,8,10,12,14,16,18,20,22,24,26,28,30,-1,32,34,36,38,40,42,44,46,48,50,52,54,-1,56,-1,-1,-1,-1,-1,-1,-1,-1,-1,-1,-1,-1,-1,-1,-1,-1,-1,-1,-1,-1,-1,-1,-1,-1,-1,-1],"split_conditions":[1E0,2.5E-1,-3.2057384E-1,1.206E1,1E0,2.4979E4,6.64E2,1E0,2.6E-1,1.2E-1,1E0,1E0,1.571E1,6.24E2,4.1848E4,4.0056E4,3.6484933E-1,2.9E1,1.3E-1,1E0,1.101E1,4.8486E4,2.4143E4,2.4143E4,1E0,4E0,1.645E1,1.103E1,8.9422E4,3.4943113E-1,1.029E1,-3.5988626E-1,1.12842865E-1,1.24605164E-1,3.7750605E-1,-5.5257767E-3,-3.785889E-1,-3.330877E-1,-1.6887203E-1,2.685356E-1,1.409764E-1,2.7260908E-1,-2.6495174E-1,3.2350478E-1,-3.1819567E-2,5.59156E-2,2.40388E-1,4.052141E-1,1.7640768E-1,-7.943964E-4,3.8823676E-1,-7.28411E-2,2.7517012E-1,-3.5897896E-1,-7.9981424E-4,-8.21395E-2,2.1220021E-1],"split_indices":[9,6,0,5,16,2,8,21,6,6,21,15,5,8,2,2,0,0,6,15,5,2,2,2,16,7,5,5,2,0,5,0,0,0,0,0,0,0,0,0,0,0,0,0,0,0,0,0,0,0,0,0,0,0,0,0,0],"split_type":[0,0,0,0,0,0,0,0,0,0,0,0,0,0,0,0,0,0,0,0,0,0,0,0,0,0,0,0,0,0,0,0,0,0,0,0,0,0,0,0,0,0,0,0,0,0,0,0,0,0,0,0,0,0,0,0,0],"sum_hessian":[4.1317803E3,3.0215247E3,1.1102559E3,2.4532927E3,5.682319E2,1.2482966E3,1.204996E3,1.4719734E2,4.2103455E2,8.658437E1,1.1617123E3,7.911862E2,4.1380978E2,1.2563488E2,2.1562468E1,5.1212986E1,3.6982153E2,1.5279658E1,7.130472E1,1.01470935E3,1.4700294E2,7.6121075E2,2.9975462E1,3.1574594E2,9.8063835E1,3.97167E1,8.591818E1,7.947932E0,1.3614535E1,1.8980059E1,3.223293E1,9.616322E0,5.663337E0,7.057242E0,6.4247475E1,9.7324884E2,4.1460476E1,8.9719666E1,5.728328E1,2.4195421E2,5.192566E2,5.8923793E0,2.4083082E1,1.4484535E1,3.012614E2,4.0152313E1,5.7911522E1,1.4380869E1,2.5335833E1,7.5719826E1,1.0198353E1,4.6565223E0,3.2914095E0,1.1241251E1,2.373284E0,5.1860085E0,2.704692E1],"tree_param":{"num_deleted":"0","num_feature":"22","num_nodes":"57","size_leaf_vector":"1"}},{"base_weights":[-6.501423E-2,2.2321446E-1,-3.147638E-1,1.0421637E-1,8.1569016E-1,-1.385025E-2,4.6118695E-1,1.919422E-1,1.0837401E0,1.00126445E-1,-4.3255687E-1,3.3523583E-1,9.2828566E-1,3.5307318E-1,8.5404254E-2,6.569059E-1,3.4451178E-1,1.4854984E-1,-8.2832944E-1,-5.462957E-1,-3.7039496E-2,5.811159E-1,6.066912E-2,7.4236155E-1,1.1526787E0,2.156199E-1,-7.8303355E-1,9.833317E-1,3.6066377E-1,2.1446932E-2,2.2084515E-1,2.3858954E-1,-3.5870874E-1,3.2767093E-1,-1.6918212E-1,8.160282E-1,-3.1073885E-2,2.675564E-1,1.20010965E-1,5.9173983E-2,-1.5068063E-1,1.7339994E-1,3.0794317E-1,3.5357353E-1,1.1442106E-1,-5.780662E-3,2.4940659E-1,-3.1294957E-1,2.1363136E-1,-5.076647E-3,3.143253E-1,-2.7410248E-1,1.5194714E-1],"categories":[],"categories_nodes":[],"categories_segments":[],"categories_sizes":[],"default_left":[0,0,0,0,0,0,0,0,0,0,0,0,0,0,0,0,0,0,0,0,0,0,0,0,0,0,0,0,0,0,0,0,0,0,0,0,0,0,0,0,0,0,0,0,0,0,0,0,0,0,0,0,0],"id":5,"left_children":[1,3,-1,5,7,9,11,13,15,17,19,21,23,-1,25,27,-1,29,31,33,35,37,39,41,43,45,47,49,51,-1,-1,-1,-1,-1,-1,-1,-1,-1,-1,-1,-1,-1,-1,-1,-1,-1,-1,-1,-1,-1,-1,-1,-1],"loss_changes":[1.0472976E3,2.0125905E2,0E0,1.0028511E2,7.962842E1,8.541535E1,3.4480927E1,1.5087944E1,8.453278E0,6.337847E1,1.7207344E1,3.1515945E1,4.3606415E0,0E0,1.50609255E1,4.115803E0,0E0,6.0535645E1,4.264049E1,9.212875E0,1.6170023E1,1.3509987E1,1.7160753E1,2.7309456E0,6.4606476E-1,1.6692232E1,7.5052824E0,1.3976269E0,5.259947E0,0E0,0E0,0E0,0E0,0E0,0E0,0E0,0E0,0E0,0E0,0E0,0E0,0E0,0E0,0E0,0E0,0E0,0E0,0E0,0E0,0E0,0E0,0E0,0E0],"parents":[2147483647,0,0,1,1,3,3,4,4,5,5,6,6,7,7,8,8,9,9,10,10,11,11,12,12,14,14,15,15,17,17,18,18,19,19,20,20,21,21,22,22,23,23,24,24,25,25,26,26,27,27,28,28],"right_children":[2,4,-1,6,8,10,12,14,16,18,20,22,24,-1,26,28,-1,30,32,34,36,38,40,42,44,46,48,50,52,-1,-1,-1,-1,-1,-1,-1,-1,-1,-1,-1,-1,-1,-1,-1,-1,-1,-1,-1,-1,-1,-1,-1,-1],"split_conditions":[1E0,2.5E-1,-3.147638E-1,1.44E1,1E0,9.6309E4,1E0,2.4979E4,2.6E-1,1E0,1.975E4,6.49E2,9.003E3,3.5307318E-1,1E0,4.8486E4,3.4451178E-1,1E0,2.4143E4,5.28E2,4E-2,5.4037E4,1E0,1.599E1,1E0,1.431E1,1.758E1,6.91E0,4.9038E4,2.1446932E-2,2.2084515E-1,2.3858954E-1,-3.5870874E-1,3.2767093E-1,-1.6918212E-1,8.160282E-1,-3.1073885E-2,2.675564E-1,1.20010965E-1,5.9173983E-2,-1.5068063E-1,1.7339994E-1,3.0794317E-1,3.5357353E-1,1.1442106E-1,-5.780662E-3,2.4940659E-1,-3.1294957E-1,2.1363136E-1,-5.076647E-3,3.143253E-1,-2.7410248E-1,1.5194714E-1],"split_indices":[9,6,0,5,16,2,19,2,6,15,4,8,4,0,15,2,0,18,2,8,6,2,21,5,15,5,5,5,2,0,0,0,0,0,0,0,0,0,0,0,0,0,0,0,0,0,0,0,0,0,0,0,0],"split_type":[0,0,0,0,0,0,0,0,0,0,0,0,0,0,0,0,0,0,0,0,0,0,0,0,0,0,0,0,0,0,0,0,0,0,0,0,0,0,0,0,0,0,0,0,0,0,0,0,0,0,0,0,0],"sum_hessian":[3.6900771E3,2.8548032E3,8.3527386E2,2.3783E3,4.7650308E2,1.7879154E3,5.9038477E2,1.4373952E2,3.3276355E2,1.4059584E3,3.8195697E2,4.6635257E2,1.240322E2,1.3049252E1,1.3069028E2,4.522962E1,2.8753394E2,1.3370641E3,6.889426E1,2.9635345E2,8.560351E1,2.4543979E2,2.209128E2,7.018649E1,5.384572E1,1.143031E2,1.6387167E1,2.0415104E1,2.4814518E1,1.183038E3,1.540262E2,1.2497022E1,5.6397236E1,2.5084743E0,2.9384497E2,1.077502E0,8.452601E1,8.8921715E1,1.5651807E2,1.7830327E2,4.260953E1,4.6386272E1,2.3800217E1,5.158538E1,2.2603366E0,8.3441E1,3.0862103E1,1.4216078E1,2.1710896E0,1.2798514E0,1.9135252E1,2.0073514E0,2.2807167E1],"tree_param":{"num_deleted":"0","num_feature":"22","num_nodes":"53","size_leaf_vector":"1"}},{"base_weights":[-5.6280337E-2,1.6980559E-1,-3.1055588E-1,8.266525E-2,7.788421E-1,4.2501488E-1,-2.192965E-2,1.7055218E-1,3.3088714E-1,8.920489E-1,3.013429E-1,-3.126876E-1,1.126171E-1,2.876271E-1,-5.082297E-1,1.5153275E-2,3.7268156E-1,-8.921133E-2,5.691337E-1,-2.3764943E-1,-1.0051304E0,1.5790459E-2,5.043824E-1,1.0199033E0,1.7823078E-1,3.6099264E-1,-8.230174E-1,-1.0512616E-1,2.294225E-1,-7.235015E-2,1.629499E-1,-3.1849768E-2,1.9261053E-1,2.0514179E-2,-1.109686E-1,-3.0837977E-1,-9.4602466E-2,6.4531185E-2,-4.915834E-2,2.3060756E-2,2.1109554E-1,3.6887902E-1,-6.7071296E-2,9.455291E-2,-1.1565987E-1,1.9999012E-1,-9.093491E-2,-3.1636456E-1,-5.5831593E-2],"categories":[],"categories_nodes":[],"categories_segments":[],"categories_sizes":[],"default_left":[0,0,0,0,0,0,0,0,0,0,0,0,0,0,0,0,0,0,0,0,0,0,0,0,0,0,0,0,0,0,0,0,0,0,0,0,0,0,0,0,0,0,0,0,0,0,0,0,0],"id":6,"left_children":[1,3,-1,5,7,9,11,13,-1,15,17,19,21,23,25,27,-1,29,31,33,35,37,39,41,43,45,47,-1,-1,-1,-1,-1,-1,-1,-1,-1,-1,-1,-1,-1,-1,-1,-1,-1,-1,-1,-1,-1,-1],"loss_changes":[7.39427E2,1.4399266E2,0E0,8.508014E1,6.677408E1,3.1846733E1,7.1262794E1,9.622469E0,0E0,3.5575485E1,4.618666E1,2.9703224E1,4.7236618E1,8.016742E0,5.1957755E0,9.609898E0,0E0,1.745647E1,1.2957985E1,2.1119886E1,5.571594E-1,3.5830658E1,2.0969814E1,3.6881657E0,7.0894637E0,1.3093073E0,1.7868824E0,0E0,0E0,0E0,0E0,0E0,0E0,0E0,0E0,0E0,0E0,0E0,0E0,0E0,0E0,0E0,0E0,0E0,0E0,0E0,0E0,0E0,0E0],"parents":[2147483647,0,0,1,1,3,3,4,4,5,5,6,6,7,7,9,9,10,10,11,11,12,12,13,13,14,14,15,15,17,17,18,18,19,19,20,20,21,21,22,22,23,23,24,24,25,25,26,26],"right_children":[2,4,-1,6,8,10,12,14,-1,16,18,20,22,24,26,28,-1,30,32,34,36,38,40,42,44,46,48,-1,-1,-1,-1,-1,-1,-1,-1,-1,-1,-1,-1,-1,-1,-1,-1,-1,-1,-1,-1,-1,-1],"split_conditions":[1E0,2.6E-1,-3.1055588E-1,4.2173E4,1E0,2.4143E4,1.101E1,1E0,3.3088714E-1,1.3E-1,3.5346E4,1E0,1E0,5.87E2,1.2004E4,1.35E1,3.7268156E-1,1.44E1,7.88E0,6.25E2,2.5E-1,6.47E2,5.9592E4,8E0,1E0,3.8499E4,1E0,-1.0512616E-1,2.294225E-1,-7.235015E-2,1.629499E-1,-3.1849768E-2,1.9261053E-1,2.0514179E-2,-1.109686E-1,-3.0837977E-1,-9.4602466E-2,6.4531185E-2,-4.915834E-2,2.3060756E-2,2.1109554E-1,3.6887902E-1,-6.7071296E-2,9.455291E-2,-1.1565987E-1,1.9999012E-1,-9.093491E-2,-3.1636456E-1,-5.5831593E-2],"split_indices":[9,6,0,2,16,2,5,21,0,6,2,21,19,8,4,5,0,5,5,8,6,8,2,3,20,2,12,0,0,0,0,0,0,0,0,0,0,0,0,0,0,0,0,0,0,0,0,0,0],"split_type":[0,0,0,0,0,0,0,0,0,0,0,0,0,0,0,0,0,0,0,0,0,0,0,0,0,0,0,0,0,0,0,0,0,0,0,0,0,0,0,0,0,0,0,0,0,0,0,0,0],"sum_hessian":[3.3392397E3,2.7133882E3,6.2585156E2,2.3747473E3,3.3864075E2,5.550265E2,1.819721E3,1.1824608E2,2.2039467E2,1.1490124E2,4.4012524E2,5.752567E2,1.2444642E3,1.0134292E2,1.690316E1,3.3090874E1,8.181036E1,1.7929819E2,2.6082706E2,5.202246E2,5.5032143E1,9.9867676E2,2.457874E2,1.2090256E1,8.925266E1,4.4549475E0,1.2448213E1,2.2600931E1,1.0489944E1,1.4505995E2,3.423823E1,2.536938E1,2.3545767E2,1.571189E2,3.6310568E2,5.279665E1,2.2354918E0,4.7333762E2,5.253392E2,7.858237E1,1.6720503E2,1.0355171E1,1.7350852E0,7.216402E1,1.7088646E1,3.0482554E0,1.4066923E0,8.648559E0,3.7996545E0],"tree_param":{"num_deleted":"0","num_feature":"22","num_nodes":"49","size_leaf_vector":"1"}},{"base_weights":[-4.8338603E-2,1.279381E-1,-3.074441E-1,5.9550248E-2,6.820113E-1,8.046558E-1,2.2590928E-2,1.19834244E-1,3.2134426E-1,1.3995509E0,5.7502997E-1,5.415071E-2,-7.9145366E-1,3.12956E-1,3.3490505E-2,-1.9400874E-2,1.4602823E0,7.072556E-1,-1.58682E-1,-3.3313975E-1,1.1767814E-1,4.4900337E-1,-1.0172427E0,-4.4328016E-1,2.0727994E-1,4.511557E-1,8.83044E-2,-1.8837729E-1,2.3174663E-1,-2.30395E-1,8.457309E-2,-4.4217665E-2,-1.94045E-1,5.6632895E-2,-5.7539884E-2,-3.7043962E-1,2.7552357E-1,-3.4527838E-1,2.3967383E-2,-1.9004616E-1,1.1830332E-1,9.074801E-2,-1.6846861E-1],"categories":[],"categories_nodes":[],"categories_segments":[],"categories_sizes":[],"default_left":[0,0,0,0,0,0,0,0,0,0,0,0,0,0,0,0,0,0,0,0,0,0,0,0,0,0,0,0,0,0,0,0,0,0,0,0,0,0,0,0,0,0,0],"id":7,"left_children":[1,3,-1,5,7,9,11,13,-1,15,17,19,21,-1,23,-1,25,27,29,31,33,35,37,39,41,-1,-1,-1,-1,-1,-1,-1,-1,-1,-1,-1,-1,-1,-1,-1,-1,-1,-1],"loss_changes":[5.2748096E2,9.832945E1,0E0,6.3649555E1,6.224695E1,1.4116463E1,5.665866E1,9.353363E0,0E0,2.7375183E0,7.92272E0,5.2257908E1,2.3510662E1,0E0,9.100229E0,0E0,1.0092735E0,6.44236E0,3.7359242E0,1.7345718E1,4.01716E1,1.1700801E1,1.0350449E1,4.927838E0,6.0524473E0,0E0,0E0,0E0,0E0,0E0,0E0,0E0,0E0,0E0,0E0,0E0,0E0,0E0,0E0,0E0,0E0,0E0,0E0],"parents":[2147483647,0,0,1,1,3,3,4,4,5,5,6,6,7,7,9,9,10,10,11,11,12,12,14,14,16,16,17,17,18,18,19,19,20,20,21,21,22,22,23,23,24,24],"right_children":[2,4,-1,6,8,10,12,14,-1,16,18,20,22,-1,24,-1,26,28,30,32,34,36,38,40,42,-1,-1,-1,-1,-1,-1,-1,-1,-1,-1,-1,-1,-1,-1,-1,-1,-1,-1],"split_conditions":[1E0,2.6E-1,-3.074441E-1,5.54E2,1E0,5.22E2,1E0,2.6576E4,3.2134426E-1,2.2E1,1E0,8.49E0,2.4979E4,3.12956E-1,1.074E1,-1.9400874E-2,1.689E1,6.91E0,2E0,7.2837E4,1E0,1.3E-1,1.635E1,1E0,1E0,4.511557E-1,8.83044E-2,-1.8837729E-1,2.3174663E-1,-2.30395E-1,8.457309E-2,-4.4217665E-2,-1.94045E-1,5.6632895E-2,-5.7539884E-2,-3.7043962E-1,2.7552357E-1,-3.4527838E-1,2.3967383E-2,-1.9004616E-1,1.1830332E-1,9.074801E-2,-1.6846861E-1],"split_indices":[9,6,0,8,16,8,15,2,0,0,17,5,2,0,5,0,5,5,3,2,17,6,5,19,15,0,0,0,0,0,0,0,0,0,0,0,0,0,0,0,0,0,0],"split_type":[0,0,0,0,0,0,0,0,0,0,0,0,0,0,0,0,0,0,0,0,0,0,0,0,0,0,0,0,0,0,0,0,0,0,0,0,0,0,0,0,0,0,0],"sum_hessian":[3.062675E3,2.5950725E3,4.676026E2,2.3109456E3,2.8412674E2,1.0823051E2,2.202715E3,1.167575E2,1.6736922E2,2.8722855E1,7.950765E1,2.1214038E3,8.1311455E1,9.036814E0,1.0772069E2,1.1413087E0,2.7581547E1,6.739767E1,1.2109987E1,2.9834155E2,1.8230621E3,1.2369012E1,6.8942444E1,2.8362064E1,7.935863E1,2.6308594E1,1.2729527E0,2.7376704E0,6.4659996E1,4.770175E0,7.3398128E0,1.883046E2,1.1003694E2,1.4827997E3,3.4026245E2,2.3410296E0,1.0027983E1,6.141056E1,7.5318813E0,2.3312086E1,5.049978E0,7.115353E1,8.205096E0],"tree_param":{"num_deleted":"0","num_feature":"22","num_nodes":"43","size_leaf_vector":"1"}},{"base_weights":[-4.186683E-2,9.346338E-2,-3.0508232E-1,3.3263978E-2,5.506856E-1,9.152963E-2,-3.9373198E-1,7.011285E-2,9.267667E-1,2.2573385E-2,3.968631E-1,6.499927E-1,-4.774915E-1,-2.350998E-2,8.62383E-1,4.9666378E-1,3.143818E-1,2.4642931E-1,-8.0087505E-2,5.165323E-1,-9.666489E-2,-2.2497986E-1,1.0570847E0,-3.0988196E-1,-3.269421E-1,5.249459E-1,-2.0494865E-1,1.0394517E0,3.1810096E-1,5.9604776E-1,-5.381609E-1,5.812456E-2,4.2001817E-1,-2.4388414E-3,-1.0984023E-1,2.1216296E-1,-2.8502055E-2,1.2682223E-1,-9.265152E-2,1.992653E-1,-3.089803E-1,3.3315998E-1,8.2439855E-2,-6.360094E-2,-2.122022E-1,2.158251E-1,-1.8475707E-1,-1.13479584E-1,1.24653004E-1,1.2295543E-1,3.5875392E-1,-2.386503E-3,2.093366E-1,2.876039E-1,1.19986616E-1,-3.133489E-1,8.9757286E-2],"categories":[],"categories_nodes":[],"categories_segments":[],"categories_sizes":[],"default_left":[0,0,0,0,0,0,0,0,0,0,0,0,0,0,0,0,0,0,0,0,0,0,0,0,0,0,0,0,0,0,0,0,0,0,0,0,0,0,0,0,0,0,0,0,0,0,0,0,0,0,0,0,0,0,0,0,0],"id":8,"left_children":[1,3,-1,5,7,9,11,13,15,17,19,21,23,25,27,29,-1,31,33,35,37,39,41,-1,43,45,47,49,51,53,55,-1,-1,-1,-1,-1,-1,-1,-1,-1,-1,-1,-1,-1,-1,-1,-1,-1,-1,-1,-1,-1,-1,-1,-1,-1,-1],"loss_changes":[3.7860736E2,6.933727E1,0E0,5.5458855E1,5.290806E1,4.1279423E1,2.3710335E1,9.644851E0,8.04454E0,3.6807865E1,2.1383678E1,7.471485E0,2.043066E1,1.1752015E1,9.9348545E-1,4.231372E0,0E0,3.033176E1,2.26024E1,3.3986244E1,7.9921737E0,5.8898087E0,2.816677E-1,0E0,8.457323E0,6.9586563E0,9.689942E0,4.8723698E-1,6.0146666E-1,2.1172657E0,1.9479496E0,0E0,0E0,0E0,0E0,0E0,0E0,0E0,0E0,0E0,0E0,0E0,0E0,0E0,0E0,0E0,0E0,0E0,0E0,0E0,0E0,0E0,0E0,0E0,0E0,0E0,0E0],"parents":[2147483647,0,0,1,1,3,3,4,4,5,5,6,6,7,7,8,8,9,9,10,10,11,11,12,12,13,13,14,14,15,15,17,17,18,18,19,19,20,20,21,21,22,22,24,24,25,25,26,26,27,27,28,28,29,29,30,30],"right_children":[2,4,-1,6,8,10,12,14,16,18,20,22,24,26,28,30,-1,32,34,36,38,40,42,-1,44,46,48,50,52,54,56,-1,-1,-1,-1,-1,-1,-1,-1,-1,-1,-1,-1,-1,-1,-1,-1,-1,-1,-1,-1,-1,-1,-1,-1,-1,-1],"split_conditions":[1E0,2.5E-1,-3.0508232E-1,1E0,1E0,1.484E1,2.5561E4,1.645E1,2.6E-1,4.8486E4,1E0,1.3E-1,1.101E1,3.9657E4,9E0,9.5079E4,3.143818E-1,4.7656E4,1E0,1E0,5.797E3,6.48E2,2.4979E4,-3.0988196E-1,1.08376E5,1.4E4,1E0,2.4E1,3.7E1,4.0056E4,4E0,5.812456E-2,4.2001817E-1,-2.4388414E-3,-1.0984023E-1,2.1216296E-1,-2.8502055E-2,1.2682223E-1,-9.265152E-2,1.992653E-1,-3.089803E-1,3.3315998E-1,8.2439855E-2,-6.360094E-2,-2.122022E-1,2.158251E-1,-1.8475707E-1,-1.13479584E-1,1.24653004E-1,1.2295543E-1,3.5875392E-1,-2.386503E-3,2.093366E-1,2.876039E-1,1.19986616E-1,-3.133489E-1,8.9757286E-2],"split_indices":[9,6,0,21,16,5,2,5,6,2,17,6,5,2,7,2,0,2,20,20,4,8,2,0,2,4,19,0,0,2,3,0,0,0,0,0,0,0,0,0,0,0,0,0,0,0,0,0,0,0,0,0,0,0,0,0,0],"split_type":[0,0,0,0,0,0,0,0,0,0,0,0,0,0,0,0,0,0,0,0,0,0,0,0,0,0,0,0,0,0,0,0,0,0,0,0,0,0,0,0,0,0,0,0,0,0,0,0,0,0,0,0,0,0,0,0,0],"sum_hessian":[2.867452E3,2.518776E3,3.4867587E2,2.226677E3,2.9209897E2,1.9600099E3,2.6666714E2,1.2875574E2,1.6334323E2,1.5997888E3,3.6022098E2,1.930819E1,2.4735895E2,1.1601637E2,1.27393675E1,3.702424E1,1.26319E2,5.0255292E2,1.097236E3,2.8988412E2,7.033686E1,6.2729454E0,1.3035244E1,5.149784E1,1.9586111E2,2.836896E1,8.7647415E1,8.925809E0,3.8135588E0,3.416688E1,2.857358E0,4.817229E2,2.0830017E1,8.77516E2,2.1971997E2,2.2086281E2,6.902133E1,2.0111359E1,5.0225502E1,3.063581E0,3.2093642E0,1.1808821E1,1.2264235E0,1.5160913E2,4.425198E1,2.4552845E1,3.8161137E0,6.8815186E1,1.8832232E1,2.4964461E0,6.4293623E0,2.5784063E0,1.2351524E0,1.0626492E1,2.3540388E1,1.626472E0,1.230886E0],"tree_param":{"num_deleted":"0","num_feature":"22","num_nodes":"57","size_leaf_vector":"1"}},{"base_weights":[-3.413025E-2,7.0668556E-2,-3.032231E-1,-4.3525636E-2,2.580141E-1,3.0453938E-1,-1.1493708E-1,3.3515054E-1,2.0673046E-1,1.275002E0,2.5517344E-1,-8.976264E-2,-9.4817E-1,2.4432762E-1,-7.9411316E-1,1.439043E0,3.3751655E-2,5.4302734E-1,9.032661E-2,4.7006324E-2,-2.6059222E-1,-1.0056868E0,9.8442905E-2,1.5650499E-1,5.646223E-1,-9.0528077E-1,1.760938E-1,4.6914488E-1,3.7515566E-2,2.8863782E-2,2.0875861E-1,-1.0517088E-1,6.2564686E-2,-1.310522E-2,1.4856873E-1,-8.975941E-2,1.2216194E-1,3.3206496E-2,-3.1386912E-1,7.332494E-2,-6.0637977E-2,3.495926E-2,3.087825E-1,-2.1040458E-2,-3.0016986E-1],"categories":[],"categories_nodes":[],"categories_segments":[],"categories_sizes":[],"default_left":[0,0,0,0,0,0,0,0,0,0,0,0,0,0,0,0,0,0,0,0,0,0,0,0,0,0,0,0,0,0,0,0,0,0,0,0,0,0,0,0,0,0,0,0,0],"id":9,"left_children":[1,3,-1,5,7,9,11,-1,13,15,17,19,21,23,25,27,-1,29,31,33,35,37,-1,39,41,43,-1,-1,-1,-1,-1,-1,-1,-1,-1,-1,-1,-1,-1,-1,-1,-1,-1,-1,-1],"loss_changes":[2.7527814E2,5.198282E1,0E0,3.7571323E1,4.0310226E1,1.2004358E1,2.6214788E1,0E0,3.2913136E1,2.1660805E0,1.1631468E1,2.8472944E1,3.021595E0,2.350647E1,5.4009266E0,1.5445023E0,0E0,6.0405045E0,8.294057E0,2.7555824E1,1.4089333E1,1.7149239E0,0E0,2.0847874E1,3.7382004E1,2.2970257E0,0E0,0E0,0E0,0E0,0E0,0E0,0E0,0E0,0E0,0E0,0E0,0E0,0E0,0E0,0E0,0E0,0E0,0E0,0E0],"parents":[2147483647,0,0,1,1,3,3,4,4,5,5,6,6,8,8,9,9,10,10,11,11,12,12,13,13,14,14,15,15,17,17,18,18,19,19,20,20,21,21,23,23,24,24,25,25],"right_children":[2,4,-1,6,8,10,12,-1,14,16,18,20,22,24,26,28,-1,30,32,34,36,38,-1,40,42,44,-1,-1,-1,-1,-1,-1,-1,-1,-1,-1,-1,-1,-1,-1,-1,-1,-1,-1,-1],"split_conditions":[1E0,1.6E-1,-3.032231E-1,5.98E2,2.4143E4,5.13E2,1E0,3.3515054E-1,1E0,7.8E3,5.4832E4,7.2725E4,2.0046E4,2.6E-1,1.758E1,1E1,3.3751655E-2,1E0,6.5526E4,6.4776E4,2.2E4,1.9356E4,9.8442905E-2,1E0,1E0,5.87E2,1.760938E-1,4.6914488E-1,3.7515566E-2,2.8863782E-2,2.0875861E-1,-1.0517088E-1,6.2564686E-2,-1.310522E-2,1.4856873E-1,-8.975941E-2,1.2216194E-1,3.3206496E-2,-3.1386912E-1,7.332494E-2,-6.0637977E-2,3.495926E-2,3.087825E-1,-2.1040458E-2,-3.0016986E-1],"split_indices":[9,6,0,8,2,8,15,0,15,4,2,2,4,6,5,7,0,16,2,2,4,2,0,17,16,8,0,0,0,0,0,0,0,0,0,0,0,0,0,0,0,0,0,0,0],"split_type":[0,0,0,0,0,0,0,0,0,0,0,0,0,0,0,0,0,0,0,0,0,0,0,0,0,0,0,0,0,0,0,0,0,0,0,0,0,0,0,0,0,0,0,0,0],"sum_hessian":[2.687933E3,2.4282854E3,2.5964774E2,1.5091619E3,9.1912354E2,2.5636313E2,1.2527988E3,5.0602165E1,8.6852136E2,1.1207739E1,2.451554E2,1.2171333E3,3.5665478E1,8.378047E2,3.0716652E1,9.613305E0,1.5944335E0,8.843571E1,1.567197E2,6.7635626E2,5.4077704E2,3.4330425E1,1.3350544E0,6.586861E2,1.7911864E2,2.8747232E1,1.9694194E0,8.605978E0,1.0073273E0,2.2955225E1,6.5480484E1,3.27219E1,1.23997795E2,5.6328705E2,1.1306918E2,5.1174478E2,2.9032274E1,1.1424592E0,3.3187965E1,5.292655E2,1.2942056E2,9.182107E1,8.729757E1,3.1217873E0,2.5625444E1],"tree_param":{"num_deleted":"0","num_feature":"22","num_nodes":"45","size_leaf_vector":"1"}},{"base_weights":[-2.772118E-2,5.236899E-2,-3.0168083E-1,7.0391047E-1,2.7070547E-2,-1.8744001E-1,1.0286032E0,4.922546E-2,-7.9808533E-1,5.9497803E-1,-6.8405217E-1,4.2034325E-1,3.2914686E-1,-3.6045013E-3,3.7528136E-1,-1.0034081E0,1.752571E-1,-1.623998E-1,8.9211625E-1,-9.7635937E-1,3.6165556E-1,3.2972315E-1,-3.2675773E-1,5.4410428E-2,-3.2425576E-1,5.6743234E-1,1.9378662E-1,2.1067828E-2,-1.0648034E0,5.426901E-1,-6.137933E-1,-1.23255454E-1,5.4369368E-2,2.9582852E-1,4.93842E-2,-3.6317208E-1,-1.1141442E-4,-5.2286763E-2,2.369758E-1,-2.1395662E-1,1.4688705E-1,2.873899E-2,-9.24277E-2,-9.059119E-2,-5.204726E-1,2.3171261E-1,1.0831011E-1,9.92605E-2,-2.1747895E-1,2.0827824E-1,-1.8079099E-1,-3.3188233E-1,-7.4502595E-2,-1.8039948E-1,2.4689905E-1,-2.628723E-1,1.9759404E-2],"categories":[],"categories_nodes":[],"categories_segments":[],"categories_sizes":[],"default_left":[0,0,0,0,0,0,0,0,0,0,0,0,0,0,0,0,0,0,0,0,0,0,0,0,0,0,0,0,0,0,0,0,0,0,0,0,0,0,0,0,0,0,0,0,0,0,0,0,0,0,0,0,0,0,0,0,0],"id":10,"left_children":[1,3,-1,5,7,9,11,13,15,17,19,21,-1,23,25,27,29,31,33,35,37,-1,39,41,43,45,47,49,51,53,55,-1,-1,-1,-1,-1,-1,-1,-1,-1,-1,-1,-1,-1,-1,-1,-1,-1,-1,-1,-1,-1,-1,-1,-1,-1,-1],"loss_changes":[2.0090259E2,3.90676E1,0E0,2.5833233E1,4.1788906E1,9.927113E0,2.253067E0,3.8327576E1,1.2121197E1,2.4061265E0,5.076654E0,4.5244055E0,0E0,3.5654926E1,1.07097435E1,3.1364098E0,3.5986524E0,3.8840878E-1,3.4160566E-1,2.8220758E0,1.08003E0,0E0,1.8259307E0,2.4379816E1,8.707422E0,6.073807E0,2.0524464E1,2.0054262E0,1.3074646E0,3.129466E0,7.7974796E-1,0E0,0E0,0E0,0E0,0E0,0E0,0E0,0E0,0E0,0E0,0E0,0E0,0E0,0E0,0E0,0E0,0E0,0E0,0E0,0E0,0E0,0E0,0E0,0E0,0E0,0E0],"parents":[2147483647,0,0,1,1,3,3,4,4,5,5,6,6,7,7,8,8,9,9,10,10,11,11,13,13,14,14,15,15,16,16,17,17,18,18,19,19,20,20,22,22,23,23,24,24,25,25,26,26,27,27,28,28,29,29,30,30],"right_children":[2,4,-1,6,8,10,12,14,16,18,20,22,-1,24,26,28,30,32,34,36,38,-1,40,42,44,46,48,50,52,54,56,-1,-1,-1,-1,-1,-1,-1,-1,-1,-1,-1,-1,-1,-1,-1,-1,-1,-1,-1,-1,-1,-1,-1,-1,-1,-1],"split_conditions":[1E0,2.4143E4,-3.0168083E-1,1.2E-1,1E0,8E-2,1.3E-1,1.531E1,1.635E1,1.066E1,1E0,1.9356E4,3.2914686E-1,6.88E2,7.2725E4,2.5561E4,7E0,1E0,1.571E1,1.368E1,1.115E1,3.2972315E-1,2.3586E4,1E0,1.523E1,6.49E2,1E0,2.9E1,2.2E4,2.3E1,1.505E4,-1.23255454E-1,5.4369368E-2,2.9582852E-1,4.93842E-2,-3.6317208E-1,-1.1141442E-4,-5.2286763E-2,2.369758E-1,-2.1395662E-1,1.4688705E-1,2.873899E-2,-9.24277E-2,-9.059119E-2,-5.204726E-1,2.3171261E-1,1.0831011E-1,9.92605E-2,-2.1747895E-1,2.0827824E-1,-1.8079099E-1,-3.3188233E-1,-7.4502595E-2,-1.8039948E-1,2.4689905E-1,-2.628723E-1,1.9759404E-2],"split_indices":[9,2,0,6,15,6,6,5,5,5,20,2,0,8,2,2,3,10,5,5,5,0,2,21,5,8,18,0,4,0,4,0,0,0,0,0,0,0,0,0,0,0,0,0,0,0,0,0,0,0,0,0,0,0,0,0,0],"split_type":[0,0,0,0,0,0,0,0,0,0,0,0,0,0,0,0,0,0,0,0,0,0,0,0,0,0,0,0,0,0,0,0,0,0,0,0,0,0,0,0,0,0,0,0,0,0,0,0,0,0,0,0,0,0,0,0,0],"sum_hessian":[2.5635208E3,2.370333E3,1.9318788E2,8.759402E1,2.282739E3,2.3501131E1,6.409289E1,2.223967E3,5.877177E1,9.047935E0,1.44531975E1,7.2141895E0,5.6878696E1,1.9147192E3,3.0924786E2,4.850826E1,1.0263513E1,2.6772711E0,6.370663E0,1.1347532E1,3.1056645E0,3.5331948E0,3.6809947E0,1.6220709E3,2.926484E2,1.4918123E2,1.6006665E2,2.7798035E0,4.5728455E1,7.215658E0,3.0478542E0,1.4402937E0,1.2369776E0,5.32706E0,1.0436028E0,8.957569E0,2.3899636E0,1.6428169E0,1.4628476E0,2.5841835E0,1.0968113E0,1.4565188E3,1.6555206E2,2.892923E2,3.3561063E0,7.3478645E1,7.5702576E1,1.3984085E2,2.02258E1,1.2824603E0,1.4973431E0,4.3180214E1,2.5482407E0,1.194649E0,6.0210094E0,1.9901327E0,1.0577215E0],"tree_param":{"num_deleted":"0","num_feature":"22","num_nodes":"57","size_leaf_vector":"1"}},{"base_weights":[-2.2840759E-2,3.8074475E-2,-3.003078E-1,-9.367256E-2,1.3470149E-1,-4.1040096E-2,-5.1879644E-1,8.647829E-2,3.0436295E-1,5.3618345E-2,-3.8540792E-1,-4.2059967E-1,-9.813299E-1,3.132048E-2,5.320839E-1,1.8339771E-1,-3.4914404E-1,-8.4556505E-2,-5.1241523E-1,-4.659926E-1,8.875525E-1,-3.3394334E-1,-2.5315815E-1,-3.1020704E-1,9.535083E-2,1.4610567E0,-1.1506704E-1,9.726263E-2,-5.5487737E-2,5.4835264E-2,-1.2561621E-1,-5.244498E-2,3.3312964E-1,-2.0929258E-1,-7.807887E-2,-1.07791334E-1,-2.5836432E-1,3.495054E-1,6.1313685E-2,-2.9612026E-1,2.4271949E-1,8.050041E-2,-1.3694014E-1,1.20568685E-2,1.2662138E-1,3.398894E-1,5.762417E-1,4.3082905E-1,-7.4477054E-2],"categories":[],"categories_nodes":[],"categories_segments":[],"categories_sizes":[],"default_left":[0,0,0,0,0,0,0,0,0,0,0,0,0,0,0,0,0,0,0,0,0,0,0,0,0,0,0,0,0,0,0,0,0,0,0,0,0,0,0,0,0,0,0,0,0,0,0,0,0],"id":11,"left_children":[1,3,-1,5,7,9,11,13,-1,15,17,19,21,23,25,27,29,31,33,35,37,-1,39,41,43,45,47,-1,-1,-1,-1,-1,-1,-1,-1,-1,-1,-1,-1,-1,-1,-1,-1,-1,-1,-1,-1,-1,-1],"loss_changes":[1.470541E2,2.959278E1,0E0,2.1989853E1,5.680391E1,2.8590176E1,4.5055733E0,3.1254591E1,0E0,3.604408E1,7.1818886E0,5.821615E0,1.4663906E0,2.4810911E1,8.438067E1,2.7096708E1,6.297619E0,6.3775153E0,6.019161E0,3.4295864E0,4.0611362E-1,0E0,3.983981E0,1.528171E1,1.7195557E1,6.510414E0,1.7605307E1,0E0,0E0,0E0,0E0,0E0,0E0,0E0,0E0,0E0,0E0,0E0,0E0,0E0,0E0,0E0,0E0,0E0,0E0,0E0,0E0,0E0,0E0],"parents":[2147483647,0,0,1,1,3,3,4,4,5,5,6,6,7,7,9,9,10,10,11,11,12,12,13,13,14,14,15,15,16,16,17,17,18,18,19,19,20,20,22,22,23,23,24,24,25,25,26,26],"right_children":[2,4,-1,6,8,10,12,14,-1,16,18,20,22,24,26,28,30,32,34,36,38,-1,40,42,44,46,48,-1,-1,-1,-1,-1,-1,-1,-1,-1,-1,-1,-1,-1,-1,-1,-1,-1,-1,-1,-1,-1,-1],"split_conditions":[1E0,1E0,-3.003078E-1,1E0,2.6E-1,1E0,6.88E2,1E0,3.0436295E-1,1E0,5.9962E4,6.86E2,1.571E1,9.62E0,6.0592E4,1E0,4.167E4,5.8713E4,5E0,1.24029E5,2.6E1,-3.3394334E-1,1E0,3.4E3,1.531E1,4.2767E4,2.4E1,9.726263E-2,-5.5487737E-2,5.4835264E-2,-1.2561621E-1,-5.244498E-2,3.3312964E-1,-2.0929258E-1,-7.807887E-2,-1.07791334E-1,-2.5836432E-1,3.495054E-1,6.1313685E-2,-2.9612026E-1,2.4271949E-1,8.050041E-2,-1.3694014E-1,1.20568685E-2,1.2662138E-1,3.398894E-1,5.762417E-1,4.3082905E-1,-7.4477054E-2],"split_indices":[9,16,0,21,6,17,8,18,0,20,2,8,5,5,2,18,2,2,3,2,0,0,1,4,5,2,0,0,0,0,0,0,0,0,0,0,0,0,0,0,0,0,0,0,0,0,0,0,0],"split_type":[0,0,0,0,0,0,0,0,0,0,0,0,0,0,0,0,0,0,0,0,0,0,0,0,0,0,0,0,0,0,0,0,0,0,0,0,0,0,0,0,0,0,0,0,0,0,0,0,0],"sum_hessian":[2.4662744E3,2.3225986E3,1.4367577E2,9.827243E2,1.3398744E3,8.754373E2,1.0728699E2,1.2712943E3,6.858002E1,6.8734656E2,1.8809076E2,9.007353E1,1.7213453E1,1.1322169E3,1.3907744E2,5.202535E2,1.6709308E2,5.6328075E1,1.3176268E2,8.767498E1,2.3985467E0,1.412741E1,3.0860438E0,1.7814984E2,9.540671E2,5.6588314E1,8.248912E1,3.7646344E2,1.4379007E2,1.9139597E1,1.4795348E2,5.3166035E1,3.1620376E0,7.4943634E1,5.6819046E1,7.054172E1,1.7133268E1,1.2041769E0,1.1943697E0,1.866913E0,1.219131E0,3.5781002E1,1.4236884E2,8.1721674E2,1.3685036E2,3.5044033E1,2.1544281E1,5.7492685E0,7.673985E1],"tree_param":{"num_deleted":"0","num_feature":"22","num_nodes":"49","size_leaf_vector":"1"}},{"base_weights":[-1.8129526E-2,2.8620284E-2,-2.989777E-1,3.0153134E-1,-1.2121319E-2,1.1933334E0,2.5733426E-1,-3.9862558E-1,1.8143782E-2,4.0468335E-1,6.5552866E-1,2.0419694E-1,7.047747E-1,-4.3720394E-1,7.711365E-1,6.184155E-1,-8.148811E-4,3.256148E-1,3.8530834E-2,1.5552266E-1,6.778864E-1,8.087582E-1,-1.1509939E-1,-5.0447416E-1,-1.2262638E-3,-3.4761347E-2,4.209336E-1,-1.689233E-1,9.8651487E-1,1.6802983E-2,-8.0556047E-1,-3.8093846E-2,5.3775217E-2,3.05316E-2,1.6542777E-1,2.3856477E-1,-2.2807345E-1,3.298822E-1,1.3168296E-1,-2.5416207E-1,2.4077505E-1,-2.2831327E-1,-1.0427339E-1,-1.2552288E-1,2.316249E-1,7.01538E-2,-8.9987375E-2,1.3611822E-1,-1.6250002E-1,1.487892E-1,3.166482E-1,-1.9073612E-3,1.5141755E-1,-2.8740394E-1,-6.184161E-2],"categories":[],"categories_nodes":[],"categories_segments":[],"categories_sizes":[],"default_left":[0,0,0,0,0,0,0,0,0,0,0,0,0,0,0,0,0,0,0,0,0,0,0,0,0,0,0,0,0,0,0,0,0,0,0,0,0,0,0,0,0,0,0,0,0,0,0,0,0,0,0,0,0,0,0],"id":12,"left_children":[1,3,-1,5,7,9,11,13,15,-1,17,19,21,23,25,27,29,-1,31,33,35,37,39,41,43,45,-1,47,49,51,53,-1,-1,-1,-1,-1,-1,-1,-1,-1,-1,-1,-1,-1,-1,-1,-1,-1,-1,-1,-1,-1,-1,-1,-1],"loss_changes":[1.0818232E2,2.5104841E1,0E0,1.1252531E1,2.2996021E1,2.5167084E-1,6.5300884E0,6.7794304E0,2.0752584E1,0E0,1.2819972E0,5.712101E0,2.598649E0,4.0712585E0,2.5543628E0,1.634739E1,2.5089567E1,0E0,9.464432E-2,4.840485E0,4.5214605E0,2.3360882E0,3.4904835E0,4.577194E0,6.633712E0,2.936819E-1,0E0,4.571974E0,7.687874E-1,1.9573292E1,3.2669964E0,0E0,0E0,0E0,0E0,0E0,0E0,0E0,0E0,0E0,0E0,0E0,0E0,0E0,0E0,0E0,0E0,0E0,0E0,0E0,0E0,0E0,0E0,0E0,0E0],"parents":[2147483647,0,0,1,1,3,3,4,4,5,5,6,6,7,7,8,8,10,10,11,11,12,12,13,13,14,14,15,15,16,16,18,18,19,19,20,20,21,21,22,22,23,23,24,24,25,25,27,27,28,28,29,29,30,30],"right_children":[2,4,-1,6,8,10,12,14,16,-1,18,20,22,24,26,28,30,-1,32,34,36,38,40,42,44,46,-1,48,50,52,54,-1,-1,-1,-1,-1,-1,-1,-1,-1,-1,-1,-1,-1,-1,-1,-1,-1,-1,-1,-1,-1,-1,-1,-1],"split_conditions":[1E0,5.87E2,-2.989777E-1,5.07E2,7.49E0,5.01E2,1.558E1,3.1E-1,2.4143E4,4.0468335E-1,5.1336E4,2.5E-1,1.43723E5,1E0,1E0,1.2E-1,1E0,3.256148E-1,2.7E1,1E0,2.8E4,1E0,2.41032E5,2.5E1,1E0,2.8E1,4.209336E-1,8E-2,1.3E-1,1.689E1,1.635E1,-3.8093846E-2,5.3775217E-2,3.05316E-2,1.6542777E-1,2.3856477E-1,-2.2807345E-1,3.298822E-1,1.3168296E-1,-2.5416207E-1,2.4077505E-1,-2.2831327E-1,-1.0427339E-1,-1.2552288E-1,2.316249E-1,7.01538E-2,-8.9987375E-2,1.3611822E-1,-1.6250002E-1,1.487892E-1,3.166482E-1,-1.9073612E-3,1.5141755E-1,-2.8740394E-1,-6.184161E-2],"split_indices":[9,8,0,8,5,8,5,6,2,0,2,6,2,18,10,6,15,0,0,18,4,16,2,0,16,0,0,6,6,5,5,0,0,0,0,0,0,0,0,0,0,0,0,0,0,0,0,0,0,0,0,0,0,0,0],"split_type":[0,0,0,0,0,0,0,0,0,0,0,0,0,0,0,0,0,0,0,0,0,0,0,0,0,0,0,0,0,0,0,0,0,0,0,0,0,0,0,0,0,0,0,0,0,0,0,0,0,0,0,0,0,0,0],"sum_hessian":[2.3633818E3,2.2565378E3,1.06844E2,2.922793E2,1.9642585E3,1.2573465E1,2.797058E2,1.4175735E2,1.8225012E3,8.582051E0,3.9914136E0,2.5131625E2,2.8389566E1,1.3783775E2,3.9195979E0,5.483053E1,1.7676707E3,1.9050533E0,2.0863602E0,2.2910295E2,2.2213306E1,2.520625E1,3.1833158E0,1.1927657E2,1.8561176E1,2.1380906E0,1.7815071E0,1.7640287E1,3.7190243E1,1.7307592E3,3.6911465E1,1.0036005E0,1.0827599E0,2.0282327E2,2.627968E1,2.0951069E1,1.262237E0,1.3004879E1,1.2201371E1,1.8134124E0,1.3699033E0,4.3800186E1,7.547639E1,1.235491E1,6.206266E0,1.120945E0,1.0171456E0,6.524368E0,1.1115919E1,5.5944996E0,3.1595743E1,1.6532682E3,7.749092E1,2.895024E1,7.9612246E0],"tree_param":{"num_deleted":"0","num_feature":"22","num_nodes":"55","size_leaf_vector":"1"}},{"base_weights":[-1.3899054E-2,2.1560775E-2,-2.9757276E-1,7.061874E-2,-1.7193587E-1,5.157612E-2,1.0331734E0,-2.2285363E-1,4.1025913E-1,9.209764E-3,3.3493492E-1,1.2264867E0,-7.7990335E-1,-6.358765E-1,-1.8045509E-1,6.926201E-1,-6.19608E-1,1.8691713E-1,-7.576544E-2,4.0579966E-1,-1.6546002E-1,1.9089347E0,6.5814155E-1,-7.6531167E-3,-4.334578E-1,-8.779174E-1,1.8595941E-1,1.5504192E-1,-2.5012574E-1,-1.9701557E-1,7.7565324E-1,2.1586008E-1,-9.001445E-1,2.138305E-2,1.6204756E-1,9.068577E-2,-3.2629654E-2,1.5155257E-1,1.5240681E-2,-1.8729486E-1,8.866017E-2,6.382532E-1,-1.6455384E-2,-1.6132395E-1,2.691099E-1,-8.955632E-3,-3.2110572E-1,3.1121913E-1,-2.197923E-1,-3.2488156E-2,2.289512E-1,-3.2101062E-1,-5.986622E-2,1.9353342E-1,3.7062657E-1,-4.825291E-1,-4.8898026E-2],"categories":[],"categories_nodes":[],"categories_segments":[],"categories_sizes":[],"default_left":[0,0,0,0,0,0,0,0,0,0,0,0,0,0,0,0,0,0,0,0,0,0,0,0,0,0,0,0,0,0,0,0,0,0,0,0,0,0,0,0,0,0,0,0,0,0,0,0,0,0,0,0,0,0,0,0,0],"id":13,"left_children":[1,3,-1,5,7,9,11,13,15,17,19,21,23,25,27,29,31,33,35,37,39,41,43,-1,-1,45,47,49,51,-1,53,-1,55,-1,-1,-1,-1,-1,-1,-1,-1,-1,-1,-1,-1,-1,-1,-1,-1,-1,-1,-1,-1,-1,-1,-1,-1],"loss_changes":[7.97653E1,2.1085052E1,0E0,3.2420387E1,1.3410098E1,2.086546E1,1.2984337E1,7.1315517E0,1.1038958E1,2.286555E1,8.083794E0,1.0922348E1,1.9283998E0,7.747505E0,8.843248E0,3.770522E0,3.7953682E0,1.9969902E1,1.2813634E1,6.9706383E0,6.2669992E0,6.0149345E0,5.812728E0,0E0,0E0,4.803257E0,8.189922E0,1.0554049E1,1.2735119E1,0E0,8.7623405E-1,0E0,3.5866961E0,0E0,0E0,0E0,0E0,0E0,0E0,0E0,0E0,0E0,0E0,0E0,0E0,0E0,0E0,0E0,0E0,0E0,0E0,0E0,0E0,0E0,0E0,0E0,0E0],"parents":[2147483647,0,0,1,1,3,3,4,4,5,5,6,6,7,7,8,8,9,9,10,10,11,11,12,12,13,13,14,14,15,15,16,16,17,17,18,18,19,19,20,20,21,21,22,22,25,25,26,26,27,27,28,28,30,30,32,32],"right_children":[2,4,-1,6,8,10,12,14,16,18,20,22,24,26,28,30,32,34,36,38,40,42,44,-1,-1,46,48,50,52,-1,54,-1,56,-1,-1,-1,-1,-1,-1,-1,-1,-1,-1,-1,-1,-1,-1,-1,-1,-1,-1,-1,-1,-1,-1,-1,-1],"split_conditions":[1E0,9.6309E4,-2.9757276E-1,9.4211E4,1.689E1,1.38E4,1.645E1,1.00518E5,1E0,4.2173E4,1E0,1.0017E4,1E0,1E0,1.08376E5,9.7275E4,1.727E1,7E3,5.7E2,1E0,1E0,1E0,1.1E1,-7.6531167E-3,-4.334578E-1,5.98E2,1.0017E4,1.8E4,1.09374E5,-1.9701557E-1,2.26473E5,2.1586008E-1,1.799E1,2.138305E-2,1.6204756E-1,9.068577E-2,-3.2629654E-2,1.5155257E-1,1.5240681E-2,-1.8729486E-1,8.866017E-2,6.382532E-1,-1.6455384E-2,-1.6132395E-1,2.691099E-1,-8.955632E-3,-3.2110572E-1,3.1121913E-1,-2.197923E-1,-3.2488156E-2,2.289512E-1,-3.2101062E-1,-5.986622E-2,1.9353342E-1,3.7062657E-1,-4.825291E-1,-4.8898026E-2],"split_indices":[9,2,0,2,5,4,5,2,18,2,21,4,17,20,2,2,5,4,8,17,16,19,5,0,0,8,4,4,2,0,2,0,5,0,0,0,0,0,0,0,0,0,0,0,0,0,0,0,0,0,0,0,0,0,0,0,0],"split_type":[0,0,0,0,0,0,0,0,0,0,0,0,0,0,0,0,0,0,0,0,0,0,0,0,0,0,0,0,0,0,0,0,0,0,0,0,0,0,0,0,0,0,0,0,0,0,0,0,0,0,0,0,0,0,0,0,0],"sum_hessian":[2.298416E3,2.2189417E3,7.947448E1,1.7706554E3,4.482862E2,1.7373385E3,3.3316917E1,4.128006E2,3.5485603E1,1.5122649E3,2.2507358E2,3.0399233E1,2.9176822E0,3.7127525E1,3.7567307E2,2.810693E1,7.3786736E0,4.888146E2,1.0234503E3,1.973188E2,2.7754768E1,1.2741246E1,1.7657988E1,1.8533825E0,1.0642997E0,2.8627987E1,8.499538E0,6.43882E1,3.1128485E2,1.2288164E0,2.6878115E1,1.0069842E0,6.3716893E0,3.6916364E2,1.1965096E2,8.1509636E1,9.419407E2,1.5383282E2,4.348598E1,1.3732083E1,1.4022685E1,1.1390117E1,1.3511299E0,2.7317686E0,1.4926218E1,5.508226E0,2.3119762E1,4.3439083E0,4.15563E0,4.550518E1,1.888302E1,1.691333E1,2.9437152E2,2.2805954E1,4.0721602E0,2.6466866E0,3.7250028E0],"tree_param":{"num_deleted":"0","num_feature":"22","num_nodes":"57","size_leaf_vector":"1"}},{"base_weights":[-1.2254739E-2,1.4479946E-2,-2.9597443E-1,5.289548E-1,-4.2156532E-4,-6.9816306E-2,3.1045818E-1,1.3002531E-2,-6.8206817E-1,-3.1661344E-1,4.5127967E-1,3.9701033E-2,-2.5526017E-1,-8.9708984E-1,6.1812837E-2,6.353237E-1,-5.4072213E-1,7.902465E-1,-1.8741849E-1,8.549797E-2,-1.5446477E-1,6.044086E-1,-3.0293092E-1,1.0712409E-1,-9.9081594E-1,2.9469302E-1,-2.0593779E-1,2.7281228E-1,-1.5541644E-2,-2.6171404E-1,-1.0117363E-2,4.0483795E-2,2.9811046E-1,5.350876E-2,-5.36007E-3,-1.4527121E-1,5.7110596E-3,-8.141579E-3,5.6195134E-1,-1.616423E-1,-3.7311815E-2,1.9303611E-1,-1.2982652E-1,-3.1640887E-1,-4.1164793E-3,-3.0901206E-1,8.60118E-2],"categories":[],"categories_nodes":[],"categories_segments":[],"categories_sizes":[],"default_left":[0,0,0,0,0,0,0,0,0,0,0,0,0,0,0,0,0,0,0,0,0,0,0,0,0,0,0,0,0,0,0,0,0,0,0,0,0,0,0,0,0,0,0,0,0,0,0],"id":14,"left_children":[1,3,-1,5,7,9,-1,11,13,15,17,19,21,23,25,27,29,31,-1,33,35,37,39,41,43,-1,45,-1,-1,-1,-1,-1,-1,-1,-1,-1,-1,-1,-1,-1,-1,-1,-1,-1,-1,-1,-1],"loss_changes":[5.867031E1,1.681018E1,0E0,1.8769337E1,1.9517178E1,3.89862E0,0E0,1.4991678E1,6.644375E0,4.696777E0,4.0674095E0,1.6937532E1,7.9477644E0,3.1199741E0,2.7094848E0,8.6592424E-1,2.8387403E0,9.181671E-1,0E0,1.4792081E1,2.0812834E1,8.29478E0,7.5218163E0,1.3312451E0,1.8196468E0,0E0,3.8303106E0,0E0,0E0,0E0,0E0,0E0,0E0,0E0,0E0,0E0,0E0,0E0,0E0,0E0,0E0,0E0,0E0,0E0,0E0,0E0,0E0],"parents":[2147483647,0,0,1,1,3,3,4,4,5,5,7,7,8,8,9,9,10,10,11,11,12,12,13,13,14,14,15,15,16,16,17,17,19,19,20,20,21,21,22,22,23,23,24,24,26,26],"right_children":[2,4,-1,6,8,10,-1,12,14,16,18,20,22,24,26,28,30,32,-1,34,36,38,40,42,44,-1,46,-1,-1,-1,-1,-1,-1,-1,-1,-1,-1,-1,-1,-1,-1,-1,-1,-1,-1,-1,-1],"split_conditions":[1E0,2.4143E4,-2.9597443E-1,1.3E-1,1E0,1.287E1,3.1045818E-1,6.98E2,1.635E1,1.3872E4,3.2E1,1E0,2E3,2.5561E4,5.87E2,1E0,2.1184E4,2.3E1,-1.8741849E-1,2.7E1,2.4E1,1.5E1,7.215E3,2.9E1,2.2E4,2.9469302E-1,6.31E2,2.7281228E-1,-1.5541644E-2,-2.6171404E-1,-1.0117363E-2,4.0483795E-2,2.9811046E-1,5.350876E-2,-5.36007E-3,-1.4527121E-1,5.7110596E-3,-8.141579E-3,5.6195134E-1,-1.616423E-1,-3.7311815E-2,1.9303611E-1,-1.2982652E-1,-3.1640887E-1,-4.1164793E-3,-3.0901206E-1,8.60118E-2],"split_indices":[9,2,0,6,15,5,0,8,5,2,0,17,4,2,8,1,2,0,0,0,0,7,4,0,4,0,8,0,0,0,0,0,0,0,0,0,0,0,0,0,0,0,0,0,0,0,0],"split_type":[0,0,0,0,0,0,0,0,0,0,0,0,0,0,0,0,0,0,0,0,0,0,0,0,0,0,0,0,0,0,0,0,0,0,0,0,0,0,0,0,0,0,0,0,0,0,0],"sum_hessian":[2.2508164E3,2.191664E3,5.915224E1,6.0722496E1,2.1309417E3,2.8203678E1,3.251882E1,2.090748E3,4.0193497E1,1.9405441E1,8.798236E0,1.9022783E3,1.8846982E2,3.1020842E1,9.172654E0,3.3482642E0,1.6057177E1,6.8925138E0,1.9057218E0,1.539681E3,3.6259732E2,9.288425E0,1.791814E2,2.6359038E0,2.8384937E1,1.4655399E0,7.7071147E0,2.1623898E0,1.1858745E0,9.271466E0,6.785711E0,2.0270236E0,4.86549E0,8.106528E2,7.290282E2,1.2438645E2,2.3821088E2,6.8548985E0,2.4335275E0,7.633058E1,1.02850815E2,1.2260586E0,1.4098454E0,2.6568527E1,1.8164108E0,2.475394E0,5.2317204E0],"tree_param":{"num_deleted":"0","num_feature":"22","num_nodes":"47","size_leaf_vector":"1"}},{"base_weights":[-9.985894E-3,1.0146706E-2,-2.940552E-1,3.9520048E-2,-2.2915153E-1,2.4844507E-2,4.398496E-1,-6.8974125E-1,-1.240646E-1,7.467631E-2,-9.052512E-2,1.9533363E-1,2.9119223E-1,5.6113654E-1,-8.374036E-1,4.5587367E-1,-1.8394628E-1,1.16384365E-1,-9.9527724E-2,-4.1839248E-1,-4.459758E-3,2.9048994E-1,-3.0664834E-1,-7.403348E-2,2.745535E-1,-2.913663E-1,-2.1081007E-1,1.2107505E0,-3.6321145E-2,-6.133774E-1,-4.437478E-2,5.5568025E-2,-2.4730194E-2,6.539424E-2,-1.11587554E-1,2.6166799E-2,-1.4495601E-1,-1.2802386E-2,8.728071E-2,1.6564086E-2,2.999636E-1,-2.6029554E-1,1.14020765E-1,4.432026E-1,-2.085979E-2,-1.18781194E-1,5.0272995E-1,-2.0926124E-1,1.0584313E-1,7.771852E-2,-6.1055806E-2],"categories":[],"categories_nodes":[],"categories_segments":[],"categories_sizes":[],"default_left":[0,0,0,0,0,0,0,0,0,0,0,0,0,0,0,0,0,0,0,0,0,0,0,0,0,0,0,0,0,0,0,0,0,0,0,0,0,0,0,0,0,0,0,0,0,0,0,0,0,0,0],"id":15,"left_children":[1,3,-1,5,7,9,11,13,15,17,19,21,-1,23,25,27,29,31,33,35,37,39,-1,-1,-1,-1,41,43,45,47,49,-1,-1,-1,-1,-1,-1,-1,-1,-1,-1,-1,-1,-1,-1,-1,-1,-1,-1,-1,-1],"loss_changes":[4.3305244E1,1.527949E1,0E0,1.1362187E1,1.1417716E1,1.0748547E1,8.687259E0,8.584393E0,6.8463793E0,9.49613E0,1.5914573E1,5.8667593E0,0E0,1.7238731E0,3.1235962E0,6.9222527E0,1.0594551E1,1.4437151E1,2.1939568E1,3.8839417E0,5.0672297E0,7.51724E0,0E0,0E0,0E0,0E0,3.5366235E0,2.6064825E0,8.160743E0,3.7744884E0,6.563485E0,0E0,0E0,0E0,0E0,0E0,0E0,0E0,0E0,0E0,0E0,0E0,0E0,0E0,0E0,0E0,0E0,0E0,0E0,0E0,0E0],"parents":[2147483647,0,0,1,1,3,3,4,4,5,5,6,6,7,7,8,8,9,9,10,10,11,11,13,13,14,14,15,15,16,16,17,17,18,18,19,19,20,20,21,21,26,26,27,27,28,28,29,29,30,30],"right_children":[2,4,-1,6,8,10,12,14,16,18,20,22,-1,24,26,28,30,32,34,36,38,40,-1,-1,-1,-1,42,44,46,48,50,-1,-1,-1,-1,-1,-1,-1,-1,-1,-1,-1,-1,-1,-1,-1,-1,-1,-1,-1,-1],"split_conditions":[1E0,1E0,-2.940552E-1,3E-1,1.101E1,6.69E2,1E0,2.4979E4,1.102E1,1E0,9.91E0,9.0702E4,2.9119223E-1,1.3E-1,2.5E-1,6.33E2,1.261E1,1E0,5.9962E4,3E0,1.3E1,2.5E4,-3.0664834E-1,-7.403348E-2,2.745535E-1,-2.913663E-1,1E0,1.2004E4,1.975E4,3.8E1,1.399E1,5.5568025E-2,-2.4730194E-2,6.539424E-2,-1.11587554E-1,2.6166799E-2,-1.4495601E-1,-1.2802386E-2,8.728071E-2,1.6564086E-2,2.999636E-1,-2.6029554E-1,1.14020765E-1,4.432026E-1,-2.085979E-2,-1.18781194E-1,5.0272995E-1,-2.0926124E-1,1.0584313E-1,7.771852E-2,-6.1055806E-2],"split_indices":[9,21,0,6,5,8,16,2,5,20,5,2,0,6,6,8,5,17,2,7,7,4,0,0,0,0,16,4,4,0,5,0,0,0,0,0,0,0,0,0,0,0,0,0,0,0,0,0,0,0,0],"split_type":[0,0,0,0,0,0,0,0,0,0,0,0,0,0,0,0,0,0,0,0,0,0,0,0,0,0,0,0,0,0,0,0,0,0,0,0,0,0,0,0,0,0,0,0,0,0,0,0,0,0,0],"sum_hessian":[2.215565E3,2.171494E3,4.4071175E1,1.9348323E3,2.3666162E2,1.8674365E3,6.7395645E1,4.2931572E1,1.9373004E2,1.3043843E3,5.630523E2,4.7077003E1,2.031864E1,4.237206E0,3.8694366E1,1.7512568E1,1.7621748E2,1.0526823E3,2.51702E2,1.16267624E2,4.4678467E2,4.437052E1,2.706484E0,1.383366E0,2.85384E0,3.1431707E1,7.262661E0,6.3356743E0,1.1176893E1,4.2391953E1,1.3382552E2,7.8198303E2,2.7069928E2,1.1632692E2,1.3537508E2,1.3167808E1,1.03099815E2,3.9636328E2,5.042138E1,3.4129078E1,1.0241441E1,3.2175329E0,4.0451283E0,5.1163793E0,1.219295E0,9.872053E0,1.3048396E0,3.9251034E1,3.1409202E0,4.5824806E1,8.800072E1],"tree_param":{"num_deleted":"0","num_feature":"22","num_nodes":"51","size_leaf_vector":"1"}},{"base_weights":[-8.791142E-3,6.4278473E-3,-2.9167238E-1,7.007585E-1,-1.2376403E-3,3.520011E-1,4.48838E-1,-8.4246896E-2,6.000292E-2,-2.2771512E-1,7.294221E-1,-5.3622328E-2,-3.607566E-1,3.014515E-2,2.971006E-1,3.9856544E-1,-7.5881183E-1,9.7678334E-1,1.5248415E-1,-8.166443E-3,-2.5438818E-1,-2.7611247E-1,-8.3861166E-1,-4.621377E-3,3.272574E-1,1.7186388E-2,1.6860946E-1,-2.8018317E-1,-5.3285982E-2,4.3200385E-2,3.2220724E-1,1.9868521E-1,-2.1951969E-1,-5.825978E-3,4.7328925E-1,-4.16056E-2,-1.9064744E-1,-1.0129115E-1,1.8492568E-1,-3.1155902E-1,-3.8725708E-2,-1.7467959E-2,6.0263015E-2,3.6783642E-1,-4.9378E-2],"categories":[],"categories_nodes":[],"categories_segments":[],"categories_sizes":[],"default_left":[0,0,0,0,0,0,0,0,0,0,0,0,0,0,0,0,0,0,0,0,0,0,0,0,0,0,0,0,0,0,0,0,0,0,0,0,0,0,0,0,0,0,0,0,0],"id":16,"left_children":[1,3,-1,5,7,-1,9,11,13,15,17,19,21,23,-1,25,27,29,31,33,35,37,39,41,43,-1,-1,-1,-1,-1,-1,-1,-1,-1,-1,-1,-1,-1,-1,-1,-1,-1,-1,-1,-1],"loss_changes":[3.1949163E1,1.1420711E1,0E0,2.2628794E0,1.0798387E1,0E0,3.3748338E0,7.6171565E0,3.3925182E1,2.204081E0,1.590138E0,7.4179244E0,3.3984337E0,1.2246249E1,0E0,1.5073758E-1,1.8405986E-1,5.210471E-1,2.6671815E0,1.1880093E1,6.529132E0,4.4765687E0,1.7119265E0,1.1712787E1,5.510851E1,0E0,0E0,0E0,0E0,0E0,0E0,0E0,0E0,0E0,0E0,0E0,0E0,0E0,0E0,0E0,0E0,0E0,0E0,0E0,0E0],"parents":[2147483647,0,0,1,1,3,3,4,4,6,6,7,7,8,8,9,9,10,10,11,11,12,12,13,13,15,15,16,16,17,17,18,18,19,19,20,20,21,21,22,22,23,23,24,24],"right_children":[2,4,-1,6,8,-1,10,12,14,16,18,20,22,24,-1,26,28,30,32,34,36,38,40,42,44,-1,-1,-1,-1,-1,-1,-1,-1,-1,-1,-1,-1,-1,-1,-1,-1,-1,-1,-1,-1],"split_conditions":[1E0,5.22E2,-2.9167238E-1,5.01E2,1E0,3.520011E-1,1.082E1,1E0,2.6E-1,5.767E4,7.1782E4,1E0,6.88E2,1E0,2.971006E-1,3.8499E4,1E0,3.005E3,1E0,2.8E1,1.427E1,6.81E2,1.571E1,1.44E1,6.0592E4,1.7186388E-2,1.6860946E-1,-2.8018317E-1,-5.3285982E-2,4.3200385E-2,3.2220724E-1,1.9868521E-1,-2.1951969E-1,-5.825978E-3,4.7328925E-1,-4.16056E-2,-1.9064744E-1,-1.0129115E-1,1.8492568E-1,-3.1155902E-1,-3.8725708E-2,-1.7467959E-2,6.0263015E-2,3.6783642E-1,-4.9378E-2],"split_indices":[9,8,0,8,16,0,5,21,6,2,2,20,8,18,0,2,12,4,17,3,5,8,5,5,2,0,0,0,0,0,0,0,0,0,0,0,0,0,0,0,0,0,0,0,0],"split_type":[0,0,0,0,0,0,0,0,0,0,0,0,0,0,0,0,0,0,0,0,0,0,0,0,0,0,0,0,0,0,0,0,0,0,0,0,0,0,0,0,0,0,0,0,0],"sum_hessian":[2.1775098E3,2.144626E3,3.2883923E1,2.2431047E1,2.1221948E3,6.527856E0,1.59031925E1,9.0080804E2,1.2213868E3,4.717246E0,1.1185946E1,8.1206274E2,8.87453E1,1.1844072E3,3.6979557E1,2.2791574E0,2.4380884E0,7.344119E0,3.8418272E0,6.6299347E2,1.4906929E2,7.6731415E1,1.2013888E1,1.061214E3,1.2319329E2,1.1754857E0,1.1036717E0,1.4071292E0,1.0309592E0,1.0272751E0,6.316844E0,2.5960522E0,1.245775E0,6.5930255E2,3.6909332E0,1.1539829E2,3.367099E1,7.2364815E1,4.366602E0,9.011174E0,3.0027137E0,8.422308E2,2.1898322E2,4.3041496E1,8.0151794E1],"tree_param":{"num_deleted":"0","num_feature":"22","num_nodes":"45","size_leaf_vector":"1"}},{"base_weights":[-5.1459926E-3,6.4837057E-3,-2.8866452E-1,4.5422143E-1,-4.598146E-3,-5.2163586E-2,3.0232224E-1,5.0497414E-3,-5.9025425E-1,2.6618308E-1,-4.079279E-1,-2.4667324E-1,2.2859806E-2,-8.2696706E-1,7.350441E-2,-4.7012797E-1,4.6525452E-1,-5.7386005E-1,1.8866347E-1,-1.10567674E-1,-5.399467E-1,-2.0205541E-1,4.2710327E-2,9.633527E-2,-9.3791974E-1,2.628739E-1,-1.5440227E-1,5.6271628E-3,-2.2714409E-1,2.1354412E-1,1.350806E-2,6.953236E-3,-2.476418E-1,-4.627462E-2,3.8992468E-1,-1.9249666E-1,-2.8760983E-2,-7.168993E-2,2.633142E-1,2.3635757E-1,1.0415101E-2,-9.291534E-2,1.6980344E-1,-3.062507E-1,9.542631E-3,-2.864337E-1,4.916919E-2],"categories":[],"categories_nodes":[],"categories_segments":[],"categories_sizes":[],"default_left":[0,0,0,0,0,0,0,0,0,0,0,0,0,0,0,0,0,0,0,0,0,0,0,0,0,0,0,0,0,0,0,0,0,0,0,0,0,0,0,0,0,0,0,0,0,0,0],"id":17,"left_children":[1,3,-1,5,7,9,-1,11,13,15,17,19,21,23,25,27,29,31,-1,33,35,37,39,41,43,-1,45,-1,-1,-1,-1,-1,-1,-1,-1,-1,-1,-1,-1,-1,-1,-1,-1,-1,-1,-1,-1],"loss_changes":[2.372219E1,1.0452281E1,0E0,1.4313826E1,1.1621587E1,3.225618E0,0E0,9.079334E0,5.298177E0,2.436451E0,2.6648421E0,5.2819223E0,8.451841E0,2.6158466E0,1.9064375E0,5.3582513E-1,1.2540233E0,1.8319063E0,0E0,5.908704E0,1.8427687E0,6.329289E0,1.0327917E1,8.526304E-1,1.8095322E0,0E0,2.294031E0,0E0,0E0,0E0,0E0,0E0,0E0,0E0,0E0,0E0,0E0,0E0,0E0,0E0,0E0,0E0,0E0,0E0,0E0,0E0,0E0],"parents":[2147483647,0,0,1,1,3,3,4,4,5,5,7,7,8,8,9,9,10,10,11,11,12,12,13,13,14,14,15,15,16,16,17,17,19,19,20,20,21,21,22,22,23,23,24,24,26,26],"right_children":[2,4,-1,6,8,10,-1,12,14,16,18,20,22,24,26,28,30,32,-1,34,36,38,40,42,44,-1,46,-1,-1,-1,-1,-1,-1,-1,-1,-1,-1,-1,-1,-1,-1,-1,-1,-1,-1,-1,-1],"split_conditions":[1E0,2.4143E4,-2.8866452E-1,1.3E-1,1E0,1.7E3,3.0232224E-1,7.49E0,1.635E1,9.38E0,1.484E1,7.2324E4,2.6E3,2.5561E4,5.87E2,1.35E3,1E0,6.41E2,1.8866347E-1,7.0643E4,1.4E4,1.7E1,3E3,2.5E-1,2.2E4,2.628739E-1,6.16E2,5.6271628E-3,-2.2714409E-1,2.1354412E-1,1.350806E-2,6.953236E-3,-2.476418E-1,-4.627462E-2,3.8992468E-1,-1.9249666E-1,-2.8760983E-2,-7.168993E-2,2.633142E-1,2.3635757E-1,1.0415101E-2,-9.291534E-2,1.6980344E-1,-3.062507E-1,9.542631E-3,-2.864337E-1,4.916919E-2],"split_indices":[9,2,0,6,15,4,0,5,5,5,5,2,4,2,8,4,1,8,0,2,4,7,4,6,4,0,8,0,0,0,0,0,0,0,0,0,0,0,0,0,0,0,0,0,0,0,0],"split_type":[0,0,0,0,0,0,0,0,0,0,0,0,0,0,0,0,0,0,0,0,0,0,0,0,0,0,0,0,0,0,0,0,0,0,0,0,0,0,0,0,0,0,0,0,0,0,0],"sum_hessian":[2.1297322E3,2.105145E3,2.4587164E1,4.9879658E1,2.0552651E3,2.652193E1,2.3357727E1,2.0229316E3,3.2333668E1,1.4129926E1,1.2392006E1,1.3282112E2,1.8901105E3,2.3652658E1,8.681009E0,2.7173996E0,1.1412526E1,1.106729E1,1.324716E0,9.165969E1,4.1161427E1,1.5254372E2,1.7375668E3,2.551541E0,2.1101116E1,1.2905666E0,7.390443E0,1.3509492E0,1.3664504E0,6.755192E0,4.6573343E0,3.5504677E0,7.5168223E0,8.976992E1,1.8897724E0,3.312886E1,8.032565E0,1.4825444E2,4.289268E0,1.7405846E1,1.7201609E3,1.5511144E0,1.0004265E0,1.9390448E1,1.7106689E0,1.5338625E0,5.8565803E0],"tree_param":{"num_deleted":"0","num_feature":"22","num_nodes":"47","size_leaf_vector":"1"}},{"base_weights":[-4.240297E-3,4.550844E-3,-2.8485155E-1,-8.585209E-3,3.2522902E-1,1.2865174E-1,-4.362755E-2,4.3074664E-1,-3.0723953E-1,3.2288277E-1,1.141444E-1,-2.0797461E-1,-1.6866667E-2,2.1938866E-1,8.109673E-1,7.112852E-1,-6.7234725E-1,1.599498E-1,-1.4093967E-1,-1.6087964E-1,-8.8512826E-1,-1.8217589E-1,1.6633451E-2,7.416483E-1,-1.44934E-1,9.1462797E-1,2.5102502E-1,2.5767514E-1,4.8494663E-2,-9.12374E-1,1.3594164E-1,5.9218694E-2,-8.4605046E-2,-7.9683855E-2,3.1140745E-1,-5.2245602E-2,3.5566175E-1,-3.0850872E-1,3.6894567E-2,-2.6296582E-2,-1.6553685E-1,3.5562722E-3,3.11027E-1,2.798299E-1,-5.4506537E-2,-2.9003814E-1,3.878034E-2,6.335355E-2,3.08844E-1,2.3863097E-1,-9.119764E-2,-4.665865E-1,-1.1042335E-1],"categories":[],"categories_nodes":[],"categories_segments":[],"categories_sizes":[],"default_left":[0,0,0,0,0,0,0,0,0,0,0,0,0,0,0,0,0,0,0,0,0,0,0,0,0,0,0,0,0,0,0,0,0,0,0,0,0,0,0,0,0,0,0,0,0,0,0,0,0,0,0,0,0],"id":18,"left_children":[1,3,-1,5,7,9,11,13,15,-1,17,19,21,23,25,27,29,31,33,35,37,39,41,43,45,47,49,-1,-1,51,-1,-1,-1,-1,-1,-1,-1,-1,-1,-1,-1,-1,-1,-1,-1,-1,-1,-1,-1,-1,-1,-1,-1],"loss_changes":[1.7526949E1,8.807629E0,0E0,9.666708E0,5.6232824E0,5.4981723E0,7.0379915E0,5.522211E0,5.0700235E0,0E0,4.7409754E0,7.0044613E0,7.6338754E0,9.042455E0,1.2198124E0,1.6497779E-1,3.0078087E0,5.7292976E0,9.389951E0,3.9726973E0,2.1986341E0,8.066279E0,5.5781436E0,3.603572E0,6.547332E0,1.4543514E0,1.8368808E0,0E0,0E0,2.3135695E0,0E0,0E0,0E0,0E0,0E0,0E0,0E0,0E0,0E0,0E0,0E0,0E0,0E0,0E0,0E0,0E0,0E0,0E0,0E0,0E0,0E0,0E0,0E0],"parents":[2147483647,0,0,1,1,3,3,4,4,5,5,6,6,7,7,8,8,10,10,11,11,12,12,13,13,14,14,15,15,16,16,17,17,18,18,19,19,20,20,21,21,22,22,23,23,24,24,25,25,26,26,29,29],"right_children":[2,4,-1,6,8,10,12,14,16,-1,18,20,22,24,26,28,30,32,34,36,38,40,42,44,46,48,50,-1,-1,52,-1,-1,-1,-1,-1,-1,-1,-1,-1,-1,-1,-1,-1,-1,-1,-1,-1,-1,-1,-1,-1,-1,-1],"split_conditions":[1E0,1.689E1,-2.8485155E-1,6.05E2,1E0,5.01E2,6E-2,1.56E4,2.6E1,3.2288277E-1,1.01569E5,4.1E1,9.62E0,5.9012E4,2.56E4,1E0,6.85E2,3.5E1,1.5E1,2E4,1E0,9E0,1E0,6.86E2,6.11E2,1.727E1,8E0,2.5767514E-1,4.8494663E-2,8E0,1.3594164E-1,5.9218694E-2,-8.4605046E-2,-7.9683855E-2,3.1140745E-1,-5.2245602E-2,3.5566175E-1,-3.0850872E-1,3.6894567E-2,-2.6296582E-2,-1.6553685E-1,3.5562722E-3,3.11027E-1,2.798299E-1,-5.4506537E-2,-2.9003814E-1,3.878034E-2,6.335355E-2,3.08844E-1,2.3863097E-1,-9.119764E-2,-4.665865E-1,-1.1042335E-1],"split_indices":[9,5,0,8,18,8,6,4,0,0,2,0,5,2,4,12,8,0,3,4,20,7,14,8,8,5,7,0,0,7,0,0,0,0,0,0,0,0,0,0,0,0,0,0,0,0,0,0,0,0,0,0,0],"split_type":[0,0,0,0,0,0,0,0,0,0,0,0,0,0,0,0,0,0,0,0,0,0,0,0,0,0,0,0,0,0,0,0,0,0,0,0,0,0,0,0,0,0,0,0,0,0,0,0,0,0,0,0,0],"sum_hessian":[2.1076306E3,2.089196E3,1.843473E1,2.0079181E3,8.127783E1,4.078757E2,1.6000424E3,6.993003E1,1.1347804E1,5.046531E0,4.0282916E2,2.23106E2,1.3769364E3,4.5959152E1,2.3970877E1,2.7442212E0,8.603582E0,3.4182132E2,6.1007835E1,2.0975542E2,1.3350581E1,2.3127112E2,1.1456653E3,1.8460367E1,2.7498785E1,1.969193E1,4.278947E0,1.7196292E0,1.024592E0,7.2473316E0,1.3562511E0,3.1563257E2,2.6188763E1,5.5873978E1,5.1338573E0,2.0857008E2,1.1853303E0,1.1672098E1,1.6784827E0,1.8515811E2,4.6113003E1,1.1413298E3,4.3354363E0,1.5286136E1,3.1742313E0,6.247481E0,2.1251303E1,3.1622677E0,1.6529663E1,1.9414353E0,2.3375118E0,2.4710891E0,4.7762427E0],"tree_param":{"num_deleted":"0","num_feature":"22","num_nodes":"53","size_leaf_vector":"1"}},{"base_weights":[-2.805781E-3,3.8751932E-3,-2.80041E-1,3.8978052E-1,-4.533403E-3,-3.7187357E-2,2.946436E-1,2.9895492E-3,-5.445327E-1,6.63237E-2,-2.5378445E-1,2.2559289E-2,-1.6908063E-1,-7.6493776E-1,3.5352034E-3,6.527069E-1,-1.6890562E-1,-1.1158593E-2,1.4796816E-1,-7.077689E-1,-7.927963E-2,8.435704E-2,-8.887698E-1,2.9486698E-1,-6.0061896E-1,8.727955E-2,2.900978E-1,-3.0101964E-1,2.2059678E-4,2.6978036E-2,-2.387643E-2,7.546251E-2,-7.925008E-3,2.183984E-1,-2.3616053E-1,4.638505E-2,-5.8597915E-2,1.5624559E-1,-1.1287086E-1,-2.9706207E-1,7.2095226E-3,-1.9809462E-1,1.794127E-1,-3.0612044E-2,-2.5369307E-1],"categories":[],"categories_nodes":[],"categories_segments":[],"categories_sizes":[],"default_left":[0,0,0,0,0,0,0,0,0,0,0,0,0,0,0,0,0,0,0,0,0,0,0,0,0,0,0,0,0,0,0,0,0,0,0,0,0,0,0,0,0,0,0,0,0],"id":19,"left_children":[1,3,-1,5,7,9,-1,11,13,15,-1,17,19,21,23,25,27,29,31,33,35,37,39,41,43,-1,-1,-1,-1,-1,-1,-1,-1,-1,-1,-1,-1,-1,-1,-1,-1,-1,-1,-1,-1],"loss_changes":[1.2973814E1,6.7256517E0,0E0,1.1215313E1,8.2439165E0,2.2870255E0,0E0,6.7454333E0,3.3708725E0,3.496863E0,0E0,7.6065736E0,9.839469E0,2.1668482E0,1.7598609E0,5.412922E-1,2.5938244E0,9.818037E0,6.8909597E0,3.8921032E0,4.8198023E0,8.8838357E-1,1.6391573E0,2.3460321E0,3.113345E-1,0E0,0E0,0E0,0E0,0E0,0E0,0E0,0E0,0E0,0E0,0E0,0E0,0E0,0E0,0E0,0E0,0E0,0E0,0E0,0E0],"parents":[2147483647,0,0,1,1,3,3,4,4,5,5,7,7,8,8,9,9,11,11,12,12,13,13,14,14,15,15,16,16,17,17,18,18,19,19,20,20,21,21,22,22,23,23,24,24],"right_children":[2,4,-1,6,8,10,-1,12,14,16,-1,18,20,22,24,26,28,30,32,34,36,38,40,42,44,-1,-1,-1,-1,-1,-1,-1,-1,-1,-1,-1,-1,-1,-1,-1,-1,-1,-1,-1,-1],"split_conditions":[1E0,2.4143E4,-2.80041E-1,1.3E-1,1E0,1E0,2.946436E-1,1E0,1.635E1,6.29E2,-2.5378445E-1,1.3475E4,1.101E1,2.5561E4,2.9E1,3E0,7.74E0,5.5E3,1.08376E5,2.4979E4,6.33E2,2.9E1,2.2E4,2.3E1,6.68E2,8.727955E-2,2.900978E-1,-3.0101964E-1,2.2059678E-4,2.6978036E-2,-2.387643E-2,7.546251E-2,-7.925008E-3,2.183984E-1,-2.3616053E-1,4.638505E-2,-5.8597915E-2,1.5624559E-1,-1.1287086E-1,-2.9706207E-1,7.2095226E-3,-1.9809462E-1,1.794127E-1,-3.0612044E-2,-2.5369307E-1],"split_indices":[9,2,0,6,15,15,0,21,5,8,0,4,5,2,0,3,5,4,2,2,8,0,4,0,8,0,0,0,0,0,0,0,0,0,0,0,0,0,0,0,0,0,0,0,0],"split_type":[0,0,0,0,0,0,0,0,0,0,0,0,0,0,0,0,0,0,0,0,0,0,0,0,0,0,0,0,0,0,0,0,0,0,0,0,0,0,0,0,0,0,0,0,0],"sum_hessian":[2.0849976E3,2.0711252E3,1.3872185E1,4.319879E1,2.0279265E3,2.5648762E1,1.755003E1,2.0010436E3,2.6882896E1,2.3552353E1,2.0964074E0,1.7974827E3,2.0356087E2,1.8890429E1,7.9924684E0,6.2349663E0,1.7317389E1,1.4173263E3,3.8015643E2,2.810231E1,1.7545856E2,2.4444041E0,1.6446024E1,5.7376337E0,2.2548347E0,3.7937093E0,2.4412568E0,2.0953176E0,1.522207E1,5.720173E2,8.45309E2,2.3822403E2,1.4193242E2,1.0452002E0,2.705711E1,5.8074635E1,1.1738393E2,1.1879437E0,1.2564604E0,1.4724889E1,1.7211347E0,1.09855E0,4.639084E0,1.2097238E0,1.045111E0],"tree_param":{"num_deleted":"0","num_feature":"22","num_nodes":"45","size_leaf_vector":"1"}},{"base_weights":[-2.8256294E-3,2.2600098E-3,-2.7404287E-1,1.3049212E-1,-1.9717634E-2,7.347565E-2,5.872542E-1,6.6133964E-1,-2.5997363E-2,-2.3318864E-2,3.3042872E-1,1.8018632E0,5.374153E-2,-1.2634018E-2,7.6272446E-1,-9.054796E-2,2.1176606E-2,1.4208826E-1,-2.4626377E-1,4.8448914E-1,-1.6360271E-1,2.1705656E0,3.08238E-1,6.2046367E-1,-2.6054522E-1,-2.4205176E-2,8.4630126E-1,-5.258267E-2,-2.6406676E-1,-1.8368501E-3,2.9113445E-1,-2.1492457E-2,1.3144544E-1,-2.1745244E-1,-3.917975E-2,2.0013617E-1,-1.8085351E-2,3.8768554E-1,-1.0779614E-1,7.1275693E-1,2.0179552E-1,3.0466089E-2,3.2759085E-1,-2.1819034E-1,9.495075E-2,2.9281896E-1,6.721646E-2,-6.950931E-2,1.2545609E-2,2.5464294E-2,-1.2171083E-1,-6.7048003E-3,1.2079286E-1],"categories":[],"categories_nodes":[],"categories_segments":[],"categories_sizes":[],"default_left":[0,0,0,0,0,0,0,0,0,0,0,0,0,0,0,0,0,0,0,0,0,0,0,0,0,0,0,0,0,0,0,0,0,0,0,0,0,0,0,0,0,0,0,0,0,0,0,0,0,0,0,0,0],"id":20,"left_children":[1,3,-1,5,7,9,11,13,15,17,19,21,23,-1,25,27,29,31,33,35,37,39,-1,41,43,-1,45,47,49,51,-1,-1,-1,-1,-1,-1,-1,-1,-1,-1,-1,-1,-1,-1,-1,-1,-1,-1,-1,-1,-1,-1,-1],"loss_changes":[9.579893E0,5.8013926E0,0E0,7.8006134E0,7.533415E0,6.6958027E0,2.1469551E1,1.1799479E0,5.3074813E0,7.272382E0,5.6844482E0,6.611481E-1,4.463919E0,0E0,1.0635309E0,4.833725E0,2.2010881E1,7.2008934E0,4.552721E0,5.6507244E0,5.665708E0,2.3502731E-1,0E0,2.06973E0,4.604845E0,0E0,8.2558155E-1,1.023958E1,6.55101E0,8.178251E0,0E0,0E0,0E0,0E0,0E0,0E0,0E0,0E0,0E0,0E0,0E0,0E0,0E0,0E0,0E0,0E0,0E0,0E0,0E0,0E0,0E0,0E0,0E0],"parents":[2147483647,0,0,1,1,3,3,4,4,5,5,6,6,7,7,8,8,9,9,10,10,11,11,12,12,14,14,15,15,16,16,17,17,18,18,19,19,20,20,21,21,23,23,24,24,26,26,27,27,28,28,29,29],"right_children":[2,4,-1,6,8,10,12,14,16,18,20,22,24,-1,26,28,30,32,34,36,38,40,-1,42,44,-1,46,48,50,52,-1,-1,-1,-1,-1,-1,-1,-1,-1,-1,-1,-1,-1,-1,-1,-1,-1,-1,-1,-1,-1,-1,-1],"split_conditions":[1E0,3E0,-2.7404287E-1,1E0,5.22E2,1.409E1,2.4E1,2.3E1,1E0,1.112E1,1E0,1E0,2E0,-1.2634018E-2,7.89E0,1E0,2.6E-1,1.5E-1,5.93E2,1E0,1.426E1,1.35E1,3.08238E-1,8.4948E4,1E0,-2.4205176E-2,3.2E1,6.5526E4,5.9592E4,1.29398E5,2.9113445E-1,-2.1492457E-2,1.3144544E-1,-2.1745244E-1,-3.917975E-2,2.0013617E-1,-1.8085351E-2,3.8768554E-1,-1.0779614E-1,7.1275693E-1,2.0179552E-1,3.0466089E-2,3.2759085E-1,-2.1819034E-1,9.495075E-2,2.9281896E-1,6.721646E-2,-6.950931E-2,1.2545609E-2,2.5464294E-2,-1.2171083E-1,-6.7048003E-3,1.2079286E-1],"split_indices":[9,7,0,18,8,5,0,0,16,5,17,16,3,0,5,17,6,6,8,21,5,5,0,2,16,0,0,2,2,2,0,0,0,0,0,0,0,0,0,0,0,0,0,0,0,0,0,0,0,0,0,0,0],"split_type":[0,0,0,0,0,0,0,0,0,0,0,0,0,0,0,0,0,0,0,0,0,0,0,0,0,0,0,0,0,0,0,0,0,0,0,0,0,0,0,0,0,0,0,0,0,0,0,0,0,0,0,0,0],"sum_hessian":[2.0670913E3,2.0566035E3,1.0487834E1,3.0018546E2,1.756418E3,2.6790448E2,3.228098E1,1.5094152E1,1.7413239E3,1.9525931E2,7.2645164E1,9.126346E0,2.3154633E1,1.9750434E0,1.3119109E1,7.348589E2,1.00646497E3,1.1230255E2,8.295676E1,5.539112E1,1.7254042E1,4.961316E0,4.16503E0,7.912539E0,1.5242094E1,1.185937E0,1.1933171E1,6.040073E2,1.3085156E2,9.8361694E2,2.284804E1,6.5660126E1,4.6642426E1,1.5121753E1,6.783501E1,4.1315742E1,1.407538E1,1.3806899E0,1.5873352E1,3.8478537E0,1.1134624E0,4.3455157E0,3.5670233E0,8.282365E0,6.959729E0,9.403562E0,2.5296102E0,2.0796492E2,3.960424E2,3.7893726E1,9.295784E1,9.3704126E2,4.657567E1],"tree_param":{"num_deleted":"0","num_feature":"22","num_nodes":"53","size_leaf_vector":"1"}},{"base_weights":[-8.9043565E-4,3.017112E-3,-2.666944E-1,3.1730484E-2,-1.1081052E-1,4.3804576E-3,4.0406257E-1,-7.571082E-1,-7.831487E-2,2.687282E-2,-4.5744914E-1,1.0941397E0,1.5030266E-1,-1.0766985E0,3.466264E-1,-1.290723E-1,2.9485938E-1,6.783904E-3,1.3718107E0,-1.0496292E0,-1.0985251E-1,2.555144E0,8.496707E-1,-5.3644E-1,5.226342E-1,-1.1609387E0,-5.8201414E-2,9.032629E-1,-2.0989865E-1,-1.6472909E-1,2.8930444E-1,-7.0675904E-1,5.685358E-1,9.477624E-3,-1.384626E-1,4.735339E-1,-1.8455918E-1,-7.646741E-2,-3.374408E-1,-1.4856774E-1,1.3674021E-1,9.73707E-1,1.229412E-1,-8.140342E-3,3.128245E-1,-2.4230678E-2,-2.0776224E-1,1.8872468E-1,-1.0834561E-1,-2.3316313E-1,-4.148912E-1,-4.4802115E-3,3.833359E-1,-3.7593782E-2,-1.5442012E-1,1.4634326E-1,-1.0061291E-1,2.9685194E-2,-2.5495136E-1,-6.05617E-3,2.6180485E-1],"categories":[],"categories_nodes":[],"categories_segments":[],"categories_sizes":[],"default_left":[0,0,0,0,0,0,0,0,0,0,0,0,0,0,0,0,0,0,0,0,0,0,0,0,0,0,0,0,0,0,0,0,0,0,0,0,0,0,0,0,0,0,0,0,0,0,0,0,0,0,0,0,0,0,0,0,0,0,0,0,0],"id":21,"left_children":[1,3,-1,5,7,9,11,13,15,17,19,21,23,25,27,29,31,33,35,37,39,41,43,45,47,49,-1,51,-1,53,55,57,59,-1,-1,-1,-1,-1,-1,-1,-1,-1,-1,-1,-1,-1,-1,-1,-1,-1,-1,-1,-1,-1,-1,-1,-1,-1,-1,-1,-1],"loss_changes":[7.110642E0,6.6719017E0,0E0,1.659762E1,8.576977E0,1.57966E1,1.9366564E1,7.2765875E0,7.475269E0,3.9164703E1,1.442188E1,8.482487E0,2.1427866E1,9.213581E-1,3.6318157E0,5.214171E0,1.3371991E1,1.6623783E1,9.730129E0,1.2669086E0,1.0170088E1,4.2659454E0,4.6076565E0,2.0473785E0,5.320155E0,1.0735512E-1,0E0,1.3253715E0,0E0,4.3469877E0,3.581268E0,1.3060255E0,6.770997E0,0E0,0E0,0E0,0E0,0E0,0E0,0E0,0E0,0E0,0E0,0E0,0E0,0E0,0E0,0E0,0E0,0E0,0E0,0E0,0E0,0E0,0E0,0E0,0E0,0E0,0E0,0E0,0E0],"parents":[2147483647,0,0,1,1,3,3,4,4,5,5,6,6,7,7,8,8,9,9,10,10,11,11,12,12,13,13,14,14,15,15,16,16,17,17,18,18,19,19,20,20,21,21,22,22,23,23,24,24,25,25,27,27,29,29,30,30,31,31,32,32],"right_children":[2,4,-1,6,8,10,12,14,16,18,20,22,24,26,28,30,32,34,36,38,40,42,44,46,48,50,-1,52,-1,54,56,58,60,-1,-1,-1,-1,-1,-1,-1,-1,-1,-1,-1,-1,-1,-1,-1,-1,-1,-1,-1,-1,-1,-1,-1,-1,-1,-1,-1,-1],"split_conditions":[1E0,9.6309E4,-2.666944E-1,8.8438E4,9.7275E4,8.463E4,9.0702E4,1E0,1.2E1,8.2942E4,8.5196E4,9.64E0,9.2112E4,6.93E2,1.0017E4,1.689E1,6E-2,7.8658E4,1E0,5.73E2,1.316E1,4E0,6.001E3,6.2E2,1E0,1.253E1,-5.8201414E-2,6.001E3,-2.0989865E-1,6.96E2,1E0,3.005E3,1.127E1,9.477624E-3,-1.384626E-1,4.735339E-1,-1.8455918E-1,-7.646741E-2,-3.374408E-1,-1.4856774E-1,1.3674021E-1,9.73707E-1,1.229412E-1,-8.140342E-3,3.128245E-1,-2.4230678E-2,-2.0776224E-1,1.8872468E-1,-1.0834561E-1,-2.3316313E-1,-4.148912E-1,-4.4802115E-3,3.833359E-1,-3.7593782E-2,-1.5442012E-1,1.4634326E-1,-1.0061291E-1,2.9685194E-2,-2.5495136E-1,-6.05617E-3,2.6180485E-1],"split_indices":[9,2,0,2,2,2,2,20,7,2,2,5,2,8,4,5,6,2,19,8,5,3,4,8,19,5,0,4,0,8,18,4,5,0,0,0,0,0,0,0,0,0,0,0,0,0,0,0,0,0,0,0,0,0,0,0,0,0,0,0,0],"split_type":[0,0,0,0,0,0,0,0,0,0,0,0,0,0,0,0,0,0,0,0,0,0,0,0,0,0,0,0,0,0,0,0,0,0,0,0,0,0,0,0,0,0,0,0,0,0,0,0,0,0,0,0,0,0,0,0,0,0,0,0,0],"sum_hessian":[2.0472517E3,2.0392756E3,7.97609E0,1.6290612E3,4.1021448E2,1.518528E3,1.1053322E2,1.8570559E1,3.9164392E2,1.4489042E3,6.962377E1,2.8827562E1,8.170566E1,1.441976E1,4.150798E0,3.4532812E2,4.6315792E1,1.428571E3,2.0333075E1,2.5004831E1,4.4618942E1,2.7773929E0,2.6050169E1,2.856975E1,5.313591E1,1.2875736E1,1.5440239E0,2.7986076E0,1.3521905E0,3.1876697E2,2.6561138E1,9.599708E0,3.6716087E1,1.3575894E3,7.098171E1,1.8604E1,1.7290754E0,2.5402188E0,2.2464613E1,2.6612587E1,1.8006355E1,1.713081E0,1.0643119E0,4.856277E0,2.1193893E1,7.677092E0,2.0892658E1,4.768113E1,5.4547796E0,6.3689666E0,6.506769E0,1.0889696E0,1.7096379E0,2.8772253E2,3.1044437E1,2.0322355E1,6.238783E0,1.4941608E0,8.105547E0,1.2824988E1,2.3891098E1],"tree_param":{"num_deleted":"0","num_feature":"22","num_nodes":"61","size_leaf_vector":"1"}},{"base_weights":[-2.0333135E-3,9.783957E-4,-2.5789338E-1,6.5755853E-3,-4.0025553E-1,1.9964708E-2,-1.6950904E-1,1.0002467E-1,-5.619721E-1,9.2859315E-3,8.7459815E-1,-8.9273554E-1,-7.482141E-2,-2.0941636E-1,5.0219274E-1,-8.3330137E-1,-6.386581E-2,1.6148044E-2,-7.440613E-1,-2.4721387E-1,1.0293471E0,-1.1056861E0,6.542236E-2,-4.9364576E-1,9.486374E-2,7.049693E-1,-1.3533975E-2,-2.8700447E-1,4.209548E-3,2.1885446E-1,-2.7219015E-1,1.2280913E-3,5.2593106E-1,-1.2317297E-1,-3.1477243E-1,1.0625797E-1,-1.9331133E-1,4.4546774E-1,1.4841267E-1,-1.9775997E-1,-4.5513606E-1,2.7081075E-1,-2.1709497E-1,5.9340198E-2,-2.1773508E-1,-8.247515E-2,5.7525005E-2,5.6166966E-2,2.4986817E-1,-2.3164292E-1,3.574005E-2],"categories":[],"categories_nodes":[],"categories_segments":[],"categories_sizes":[],"default_left":[0,0,0,0,0,0,0,0,0,0,0,0,0,0,0,0,0,0,0,0,0,0,0,0,0,0,0,0,0,0,0,0,0,0,0,0,0,0,0,0,0,0,0,0,0,0,0,0,0,0,0],"id":22,"left_children":[1,3,-1,5,7,9,11,13,15,17,19,21,23,-1,25,27,29,31,33,35,37,39,41,43,45,47,-1,-1,-1,-1,49,-1,-1,-1,-1,-1,-1,-1,-1,-1,-1,-1,-1,-1,-1,-1,-1,-1,-1,-1,-1],"loss_changes":[5.2478924E0,4.5511637E0,0E0,4.71505E0,2.3119001E0,1.695024E1,9.6114235E0,2.809091E0,2.8148556E0,9.504539E0,4.2334843E0,3.3920012E0,9.005571E0,0E0,6.616055E-1,1.4409685E0,1.6144187E0,3.8113323E1,1.2582521E0,1.0844886E0,4.2182426E0,1.4554443E0,3.2315612E0,6.0034294E0,3.296845E0,1.22297764E-1,0E0,0E0,0E0,0E0,1.561874E0,0E0,0E0,0E0,0E0,0E0,0E0,0E0,0E0,0E0,0E0,0E0,0E0,0E0,0E0,0E0,0E0,0E0,0E0,0E0,0E0],"parents":[2147483647,0,0,1,1,3,3,4,4,5,5,6,6,7,7,8,8,9,9,10,10,11,11,12,12,14,14,15,15,16,16,17,17,18,18,19,19,20,20,21,21,22,22,23,23,24,24,25,25,30,30],"right_children":[2,4,-1,6,8,10,12,14,16,18,20,22,24,-1,26,28,30,32,34,36,38,40,42,44,46,48,-1,-1,-1,-1,50,-1,-1,-1,-1,-1,-1,-1,-1,-1,-1,-1,-1,-1,-1,-1,-1,-1,-1,-1,-1],"split_conditions":[1E0,1E0,-2.5789338E-1,1.43723E5,2.5561E4,1.35923E5,1.45625E5,1.3E-1,1.635E1,1.30984E5,1E1,6.84E2,4E0,-2.0941636E-1,3.1E1,2.2E4,5.87E2,1.29398E5,6.55E2,6.37E2,1.38E4,1.268E1,6.96E2,3E0,8.115E3,2.4E1,-1.3533975E-2,-2.8700447E-1,4.209548E-3,2.1885446E-1,6.49E2,1.2280913E-3,5.2593106E-1,-1.2317297E-1,-3.1477243E-1,1.0625797E-1,-1.9331133E-1,4.4546774E-1,1.4841267E-1,-1.9775997E-1,-4.5513606E-1,2.7081075E-1,-2.1709497E-1,5.9340198E-2,-2.1773508E-1,-8.247515E-2,5.7525005E-2,5.6166966E-2,2.4986817E-1,-2.3164292E-1,3.574005E-2],"split_indices":[9,15,0,2,2,2,2,6,5,2,5,8,3,0,0,4,8,2,8,8,4,5,8,7,4,0,0,0,0,0,8,0,0,0,0,0,0,0,0,0,0,0,0,0,0,0,0,0,0,0,0],"split_type":[0,0,0,0,0,0,0,0,0,0,0,0,0,0,0,0,0,0,0,0,0,0,0,0,0,0,0,0,0,0,0,0,0,0,0,0,0,0,0,0,0,0,0,0,0,0,0,0,0,0,0],"sum_hessian":[2.0304764E3,2.0243663E3,6.110193E0,1.9974851E3,2.688119E1,1.8571572E3,1.4032791E2,6.6598897E0,2.0221298E1,1.8352365E3,2.19207E1,1.5269658E1,1.2505825E2,1.9850149E0,4.674875E0,1.2654941E1,7.5663586E0,1.8196403E3,1.5596231E1,2.5848672E0,1.9335833E1,1.23671E1,2.9025583E0,3.5507614E1,8.955064E1,3.2008796E0,1.4739953E0,1.0933817E1,1.7211231E0,1.0532705E0,6.513088E0,1.8080945E3,1.15457535E1,8.573223E0,7.023009E0,1.0711005E0,1.5137668E0,9.480486E0,9.855347E0,7.1788487E0,5.1882505E0,1.3383925E0,1.5641658E0,8.9618225E0,2.6545792E1,1.8210402E1,7.134023E1,1.1222736E0,2.0786061E0,2.432361E0,4.080727E0],"tree_param":{"num_deleted":"0","num_feature":"22","num_nodes":"51","size_leaf_vector":"1"}},{"base_weights":[-2.6136031E-3,1.7572472E-2,-1.1742221E-1,7.5762924E-3,5.212336E-1,-9.0719676E-1,-7.930301E-2,1.5136544E-2,-8.956797E-1,8.339276E-1,-1.6697985E-1,-5.5667436E-1,-3.8797393E-1,-5.131323E-1,-3.499469E-2,-3.406527E-2,9.949555E-2,-1.0644413E0,-3.065624E-1,1.0375353E0,-3.1533277E-1,7.330983E-1,-4.660947E-1,9.4772495E-2,-2.7568445E-1,-8.586803E-1,-1.3140534E-1,-1.1913401E-1,2.5070575E-1,3.5289176E-2,-5.386929E-1,1.0303667E0,1.869861E-2,-4.5148045E-2,-3.4539008E-1,-2.4769098E-1,1.13421075E-1,2.1435065E0,7.387599E-1,3.510846E-1,-2.8146802E-2,-7.335228E-1,2.6464328E-1,-1.1321566E-1,1.9247374E-1,-9.2057854E-1,-9.892571E-3,3.4895763E-1,-4.0649304E-1,-4.1395087E-2,-4.9799925E-1,6.6642994E-1,-4.3462165E-2,-1.0117083E-3,3.104463E-1,-3.347487E-1,-5.79725E-2,1.0384389E-1,3.5846442E-1,-2.1543838E-1,2.1401746E-2,6.951335E-2,8.95084E-1,7.2047904E-2,3.958074E-1,-2.760855E-1,4.536836E-2,2.7193084E-1,-1.6868912E-1,-2.9684815E-1,-1.1105426E-1,-1.7952657E-1,1.7611732E-1,6.7460095E-3,-1.2160793E-1,1.3302393E-1,-1.7942573E-1,-2.4399847E-1,2.375776E-1,-2.4253014E-1,3.231398E-2],"categories":[],"categories_nodes":[],"categories_segments":[],"categories_sizes":[],"default_left":[0,0,0,0,0,0,0,0,0,0,0,0,0,0,0,0,0,0,0,0,0,0,0,0,0,0,0,0,0,0,0,0,0,0,0,0,0,0,0,0,0,0,0,0,0,0,0,0,0,0,0,0,0,0,0,0,0,0,0,0,0,0,0,0,0,0,0,0,0,0,0,0,0,0,0,0,0,0,0,0,0],"id":23,"left_children":[1,3,5,7,9,11,13,15,17,19,21,23,-1,25,27,29,31,33,35,37,-1,39,41,43,-1,45,47,49,51,53,55,57,59,-1,-1,-1,-1,61,63,-1,-1,65,67,-1,-1,69,-1,-1,71,73,75,77,79,-1,-1,-1,-1,-1,-1,-1,-1,-1,-1,-1,-1,-1,-1,-1,-1,-1,-1,-1,-1,-1,-1,-1,-1,-1,-1,-1,-1],"loss_changes":[4.695508E0,8.671959E0,9.048882E0,1.1559123E1,7.352891E0,1.1547451E0,5.5585656E0,6.966695E0,1.0705748E0,1.0000765E1,3.385399E0,2.215048E0,0E0,3.423626E0,6.383209E0,3.7130276E1,4.64824E1,6.6163635E-1,1.9231291E0,5.5061226E0,0E0,1.2697499E0,1.9718156E0,1.3080945E0,0E0,6.796341E-1,5.4298286E0,6.0126514E0,7.42159E0,3.6065166E1,2.5341366E1,5.1426086E0,2.2156612E1,0E0,0E0,0E0,0E0,5.793251E0,5.0148916E0,0E0,0E0,1.2833984E0,2.1931853E0,0E0,0E0,1.224699E-1,0E0,0E0,2.6817155E0,3.9864135E0,3.5427742E0,5.307249E0,4.2895474E0,0E0,0E0,0E0,0E0,0E0,0E0,0E0,0E0,0E0,0E0,0E0,0E0,0E0,0E0,0E0,0E0,0E0,0E0,0E0,0E0,0E0,0E0,0E0,0E0,0E0,0E0,0E0,0E0],"parents":[2147483647,0,0,1,1,2,2,3,3,4,4,5,5,6,6,7,7,8,8,9,9,10,10,11,11,13,13,14,14,15,15,16,16,17,17,18,18,19,19,21,21,22,22,23,23,25,25,26,26,27,27,28,28,29,29,30,30,31,31,32,32,37,37,38,38,41,41,42,42,45,45,48,48,49,49,50,50,51,51,52,52],"right_children":[2,4,6,8,10,12,14,16,18,20,22,24,-1,26,28,30,32,34,36,38,-1,40,42,44,-1,46,48,50,52,54,56,58,60,-1,-1,-1,-1,62,64,-1,-1,66,68,-1,-1,70,-1,-1,72,74,76,78,80,-1,-1,-1,-1,-1,-1,-1,-1,-1,-1,-1,-1,-1,-1,-1,-1,-1,-1,-1,-1,-1,-1,-1,-1,-1,-1,-1,-1],"split_conditions":[1.08376E5,1.03224E5,1.09374E5,1.0208E5,2.9E1,1.287E1,8.94E0,6.5526E4,1.4008E4,2.4E-1,6.09E2,6.38E2,-3.8797393E-1,2.8E1,1E1,6.0592E4,6.6582E4,3.6E3,1E0,1E1,-3.1533277E-1,1E0,1.4E1,1.7E-1,-2.7568445E-1,2.03531E5,6E0,1E0,6.44E2,5.9012E4,6.1373E4,1.036E1,6.7843E4,-4.5148045E-2,-3.4539008E-1,-2.4769098E-1,1.13421075E-1,6.42E2,1.75E4,3.510846E-1,-2.8146802E-2,1.8032E4,2.4E1,-1.1321566E-1,1.9247374E-1,1E0,-9.892571E-3,3.4895763E-1,1E0,1E0,1.029E1,5E0,7.6E3,-1.0117083E-3,3.104463E-1,-3.347487E-1,-5.79725E-2,1.0384389E-1,3.5846442E-1,-2.1543838E-1,2.1401746E-2,6.951335E-2,8.95084E-1,7.2047904E-2,3.958074E-1,-2.760855E-1,4.536836E-2,2.7193084E-1,-1.6868912E-1,-2.9684815E-1,-1.1105426E-1,-1.7952657E-1,1.7611732E-1,6.7460095E-3,-1.2160793E-1,1.3302393E-1,-1.7942573E-1,-2.4399847E-1,2.375776E-1,-2.4253014E-1,3.231398E-2],"split_indices":[2,2,2,2,0,5,5,2,4,6,8,8,0,0,7,2,2,4,16,5,0,16,3,6,0,2,7,20,8,2,2,5,2,0,0,0,0,8,4,0,0,4,3,0,0,20,0,0,20,21,5,3,4,0,0,0,0,0,0,0,0,0,0,0,0,0,0,0,0,0,0,0,0,0,0,0,0,0,0,0,0],"split_type":[0,0,0,0,0,0,0,0,0,0,0,0,0,0,0,0,0,0,0,0,0,0,0,0,0,0,0,0,0,0,0,0,0,0,0,0,0,0,0,0,0,0,0,0,0,0,0,0,0,0,0,0,0,0,0,0,0,0,0,0,0,0,0,0,0,0,0,0,0,0,0,0,0,0,0,0,0,0,0,0,0],"sum_hessian":[2.0241882E3,1.7222268E3,3.0196136E2,1.6897062E3,3.252061E1,1.285364E1,2.8910773E2,1.6766559E3,1.3050364E1,2.221525E1,1.0305363E1,8.016686E0,4.8369527E0,2.581067E1,2.6329706E2,1.0593774E3,6.172784E2,9.517181E0,3.5331826E0,2.0455402E1,1.7598474E0,2.2085714E0,8.096791E0,3.1288073E0,4.8878794E0,1.2891515E1,1.2919157E1,2.0384679E2,5.9450253E1,9.321902E2,1.2718723E2,4.836037E1,5.68918E2,1.0631454E0,8.454036E0,1.8924278E0,1.6407549E0,3.0374448E0,1.7417957E1,1.1731253E0,1.0354462E0,5.9247136E0,2.1720777E0,1.8452785E0,1.2835288E0,1.188562E1,1.0058945E0,1.6983005E0,1.1220857E1,1.7006136E2,3.378543E1,2.411084E1,3.5339413E1,8.9843567E2,3.375455E1,4.6788654E1,8.039858E1,9.975612E0,3.8384758E1,3.709169E1,5.3182635E2,1.3167602E0,1.7206846E0,1.0131214E1,7.2867427E0,4.858887E0,1.0658267E0,1.1688188E0,1.0032588E0,9.854019E0,2.0316007E0,9.737511E0,1.4833461E0,1.4546762E2,2.4593742E1,2.9170842E0,3.086835E1,1.456447E0,2.2654392E1,5.114018E0,3.0225395E1],"tree_param":{"num_deleted":"0","num_feature":"22","num_nodes":"81","size_leaf_vector":"1"}},{"base_weights":[-3.7410753E-3,3.334831E-1,-1.0299032E-2,-1.678787E-2,2.8631622E-1,-2.012991E-1,5.523331E-3,5.59105E-1,-1.3355541E-1,-2.4843037E-1,9.28865E-1,1.9687456E-1,-2.4708498E-2,2.3513873E-1,-1.7530715E-2,-3.3778474E-1,2.999341E-1,-1.4530627E-1,-7.0792E-1,1.0228385E0,6.9091365E-2,1.2278884E-1,8.048468E-1,-4.463633E-1,-1.3589831E-2,-6.1266917E-1,1.7526497E-1,5.81701E-1,-1.1614795E-1,1.5803905E-2,-4.6259934E-1,-1.1661677E0,-2.6503652E-1,1.0467135E-1,3.440036E-1,2.3878528E-1,-2.3930061E-1,1.0746404E0,1.032397E-1,-5.495298E-1,3.087533E-1,1.5806424E-2,-1.5640232E-1,7.947027E-2,-2.8566706E-1,2.7391934E-1,-1.3718466E-1,2.4279013E-1,-4.541971E-2,1.1535847E-1,-5.7852637E-2,-1.7991157E-1,2.0203902E-1,7.4865565E-2,-3.9447987E-1,1.2271022E-1,-1.4454934E-1,9.284279E-2,-4.4294886E-2,1.8135598E-2,-1.686352E-1,3.6768866E-1,1.05316184E-1,-1.3116945E-1,2.6243642E-1,9.384651E-2,-2.0246713E-1,1.6586352E-2,-3.548594E-2,3.203906E-2,-7.8735955E-2],"categories":[],"categories_nodes":[],"categories_segments":[],"categories_sizes":[],"default_left":[0,0,0,0,0,0,0,0,0,0,0,0,0,0,0,0,0,0,0,0,0,0,0,0,0,0,0,0,0,0,0,0,0,0,0,0,0,0,0,0,0,0,0,0,0,0,0,0,0,0,0,0,0,0,0,0,0,0,0,0,0,0,0,0,0,0,0,0,0,0,0],"id":24,"left_children":[1,3,5,7,-1,9,11,13,15,17,19,21,23,-1,-1,25,27,29,31,33,-1,35,37,39,41,43,45,47,-1,49,51,53,55,-1,-1,57,59,61,63,65,-1,67,69,-1,-1,-1,-1,-1,-1,-1,-1,-1,-1,-1,-1,-1,-1,-1,-1,-1,-1,-1,-1,-1,-1,-1,-1,-1,-1,-1,-1],"loss_changes":[4.452483E0,8.368835E0,5.967804E0,1.7919364E0,0E0,8.277682E0,1.0558257E1,6.6990197E-1,2.052487E0,6.8063307E0,1.7530727E-1,1.1117151E1,7.383957E0,0E0,0E0,2.2865086E0,1.6942084E0,6.1591554E0,5.0626526E0,3.6095142E-2,0E0,9.429407E0,4.9748325E0,6.7255716E0,6.4542913E0,3.316543E0,3.2961466E0,1.0870526E0,0E0,6.288994E0,6.7216377E0,3.005907E0,2.3531375E0,0E0,0E0,4.676076E0,5.321231E0,1.6782494E0,3.9555235E0,4.370304E0,0E0,6.7587004E0,7.353092E0,0E0,0E0,0E0,0E0,0E0,0E0,0E0,0E0,0E0,0E0,0E0,0E0,0E0,0E0,0E0,0E0,0E0,0E0,0E0,0E0,0E0,0E0,0E0,0E0,0E0,0E0,0E0,0E0],"parents":[2147483647,0,0,1,1,2,2,3,3,5,5,6,6,7,7,8,8,9,9,10,10,11,11,12,12,15,15,16,16,17,17,18,18,19,19,21,21,22,22,23,23,24,24,25,25,26,26,27,27,29,29,30,30,31,31,32,32,35,35,36,36,37,37,38,38,39,39,41,41,42,42],"right_children":[2,4,6,8,-1,10,12,14,16,18,20,22,24,-1,-1,26,28,30,32,34,-1,36,38,40,42,44,46,48,-1,50,52,54,56,-1,-1,58,60,62,64,66,-1,68,70,-1,-1,-1,-1,-1,-1,-1,-1,-1,-1,-1,-1,-1,-1,-1,-1,-1,-1,-1,-1,-1,-1,-1,-1,-1,-1,-1,-1],"split_conditions":[2.4143E4,1.3E-1,3.4668E4,1.3872E4,2.8631622E-1,3E-1,4.2173E4,6.68E2,1.298E1,1E0,8E0,4.167E4,4.3537E4,2.3513873E-1,-1.7530715E-2,8E0,3.2E1,1E0,6.39E2,3.3E-1,6.9091365E-2,1E0,8E0,7.11E2,1E0,2.3E1,1E-1,6.78E2,-1.1614795E-1,2.8403E4,1.44E1,1.508E3,4E0,1.0467135E-1,3.440036E-1,1E0,5E0,1.413E1,6.65E2,3E0,3.087533E-1,1E0,1.1E1,7.947027E-2,-2.8566706E-1,2.7391934E-1,-1.3718466E-1,2.4279013E-1,-4.541971E-2,1.1535847E-1,-5.7852637E-2,-1.7991157E-1,2.0203902E-1,7.4865565E-2,-3.9447987E-1,1.2271022E-1,-1.4454934E-1,9.284279E-2,-4.4294886E-2,1.8135598E-2,-1.686352E-1,3.6768866E-1,1.05316184E-1,-1.3116945E-1,2.6243642E-1,9.384651E-2,-2.0246713E-1,1.6586352E-2,-3.548594E-2,3.203906E-2,-7.8735955E-2],"split_indices":[2,6,2,2,0,6,2,8,5,17,7,2,2,0,0,3,0,19,8,6,0,19,7,8,20,0,6,8,0,2,5,4,7,0,0,21,7,5,8,7,0,17,5,0,0,0,0,0,0,0,0,0,0,0,0,0,0,0,0,0,0,0,0,0,0,0,0,0,0,0,0],"split_type":[0,0,0,0,0,0,0,0,0,0,0,0,0,0,0,0,0,0,0,0,0,0,0,0,0,0,0,0,0,0,0,0,0,0,0,0,0,0,0,0,0,0,0,0,0,0,0,0,0,0,0,0,0,0,0,0,0,0,0,0,0,0,0,0,0,0,0,0,0,0,0],"sum_hessian":[2.0107775E3,3.7406437E1,1.9733711E3,2.4537212E1,1.28692255E1,1.5007034E2,1.8233008E3,3.4978359E0,2.1039375E1,1.4481145E2,5.258894E0,2.4801117E2,1.5752896E3,2.367284E0,1.1305518E0,1.4451594E1,6.5877824E0,1.1934326E2,2.5468191E1,4.2261634E0,1.0327307E0,2.2214339E2,2.5867779E1,3.9466087E1,1.5358235E3,9.283474E0,5.16812E0,4.7806845E0,1.8070976E0,7.978265E1,3.956061E1,1.1714341E1,1.3753851E1,1.2486157E0,2.9775476E0,1.6850336E2,5.3640026E1,1.8299332E1,7.568446E0,3.747359E1,1.9924958E0,1.2743939E3,2.6142953E2,2.6512473E0,6.632227E0,2.1808803E0,2.9872394E0,3.5687742E0,1.2119104E0,2.8526665E1,5.1255985E1,3.5721657E1,3.8389544E0,1.049482E0,1.0664859E1,3.1312494E0,1.06226015E1,1.4261407E2,2.5889294E1,2.8235027E1,2.5404999E1,1.4566057E1,3.7332752E0,4.7055235E0,2.8629224E0,4.5663614E0,3.290723E1,9.849728E2,2.8942114E2,7.508212E1,1.8634741E2],"tree_param":{"num_deleted":"0","num_feature":"22","num_nodes":"71","size_leaf_vector":"1"}},{"base_weights":[-1.9422902E-3,1.3529494E-2,-1.3819149E-1,-1.5506016E-4,1.9749784E-1,-5.888718E-1,-7.071841E-2,1.8223222E-2,-1.955988E-1,3.291082E-1,-3.073893E-1,4.2407793E-1,-7.156819E-1,4.127252E-1,-1.2300666E-1,9.705987E-3,5.883983E-1,-2.7259254E-1,2.1939684E-1,5.159156E-1,-7.696482E-2,-4.383454E-1,6.650002E-1,-2.5007712E-2,2.0951678E-1,-8.771807E-1,-9.833356E-2,1.1578708E0,-2.7594222E-2,-5.149515E-1,-2.842729E-2,4.8751842E-2,-5.739174E-2,5.29573E-1,3.1457055E-1,-1.9822384E-1,-6.577872E-1,6.826296E-1,-4.5863867E-1,8.110422E-1,-2.0618564E-1,-3.1364492E-1,6.55535E-1,2.0992447E-1,-6.8719E-1,6.660485E-2,2.4074396E-1,-2.921108E-1,-4.2557275E-1,-2.0634383E-1,3.0631876E-1,1.4123954E0,-3.0625658E-2,5.819846E-1,-4.3246382E-1,-5.777573E-1,1.4956519E-1,1.599304E-1,-2.1855272E-1,4.6262527E-3,4.7312704E-1,-2.3813434E-1,2.3234824E-3,-2.7528277E-1,1.3826853E-1,-1.3131794E-1,-2.6864393E-2,1.8797737E-2,-2.6597667E-1,3.166612E-1,-1.3126844E-1,-2.9197982E-1,9.2007086E-2,1.4209715E-1,2.9059827E-1,-1.9691128E-1,1.0022031E-1,1.3411334E-1,-1.988599E-1,-1.2034402E-1,2.5985104E-1,2.486497E-1,-1.0188294E-1,-3.0853903E-1,5.100792E-2,1.4191535E-1,-2.3032595E-1,-6.7016356E-2,1.8318424E-1,1.9770119E-1,6.1745036E-1,-1.822867E-2,3.9050525E-1,-2.6462916E-1,-3.664797E-2,-7.2882175E-2,-2.2946383E-1,1.5630195E-1,-6.6757896E-3,2.2250272E-1,-8.346079E-2],"categories":[],"categories_nodes":[],"categories_segments":[],"categories_sizes":[],"default_left":[0,0,0,0,0,0,0,0,0,0,0,0,0,0,0,0,0,0,0,0,0,0,0,0,0,0,0,0,0,0,0,0,0,0,0,0,0,0,0,0,0,0,0,0,0,0,0,0,0,0,0,0,0,0,0,0,0,0,0,0,0,0,0,0,0,0,0,0,0,0,0,0,0,0,0,0,0,0,0,0,0,0,0,0,0,0,0,0,0,0,0,0,0,0,0,0,0,0,0,0,0],"id":25,"left_children":[1,3,5,7,9,11,13,15,17,19,21,23,25,27,29,31,33,35,37,39,41,43,45,-1,-1,47,49,51,53,55,57,59,61,-1,63,65,67,69,71,73,75,77,79,81,83,-1,-1,-1,85,-1,87,89,-1,91,93,95,-1,97,99,-1,-1,-1,-1,-1,-1,-1,-1,-1,-1,-1,-1,-1,-1,-1,-1,-1,-1,-1,-1,-1,-1,-1,-1,-1,-1,-1,-1,-1,-1,-1,-1,-1,-1,-1,-1,-1,-1,-1,-1,-1,-1],"loss_changes":[4.2166023E0,4.5225244E0,6.1610355E0,6.012953E0,8.3657055E0,3.6978579E0,4.564269E0,7.4251547E0,4.6572065E0,7.560278E0,3.63221E0,5.548646E-1,2.2923145E0,5.8250875E0,5.9867935E0,3.9552689E0,6.6966877E0,3.3591213E0,7.5594716E0,1.4665812E1,5.7720966E0,3.9712882E0,3.5664678E-2,0E0,0E0,4.044094E-1,1.6593456E0,2.2547941E0,3.2318068E0,2.2876396E0,4.7435102E0,4.8584377E1,2.6647701E1,0E0,3.933871E0,2.65555E0,3.2338257E0,6.355431E0,4.2223396E0,2.1201916E0,5.213816E0,6.922504E0,2.1646874E0,2.7801013E0,5.2584085E0,0E0,0E0,0E0,1.9265108E0,0E0,8.2838184E-1,1.340333E0,0E0,2.505577E0,9.84645E-1,1.6964712E0,0E0,4.394327E0,3.978417E0,0E0,0E0,0E0,0E0,0E0,0E0,0E0,0E0,0E0,0E0,0E0,0E0,0E0,0E0,0E0,0E0,0E0,0E0,0E0,0E0,0E0,0E0,0E0,0E0,0E0,0E0,0E0,0E0,0E0,0E0,0E0,0E0,0E0,0E0,0E0,0E0,0E0,0E0,0E0,0E0,0E0,0E0],"parents":[2147483647,0,0,1,1,2,2,3,3,4,4,5,5,6,6,7,7,8,8,9,9,10,10,11,11,12,12,13,13,14,14,15,15,16,16,17,17,18,18,19,19,20,20,21,21,22,22,25,25,26,26,27,27,28,28,29,29,30,30,31,31,32,32,34,34,35,35,36,36,37,37,38,38,39,39,40,40,41,41,42,42,43,43,44,44,48,48,50,50,51,51,53,53,54,54,55,55,57,57,58,58],"right_children":[2,4,6,8,10,12,14,16,18,20,22,24,26,28,30,32,34,36,38,40,42,44,46,-1,-1,48,50,52,54,56,58,60,62,-1,64,66,68,70,72,74,76,78,80,82,84,-1,-1,-1,86,-1,88,90,-1,92,94,96,-1,98,100,-1,-1,-1,-1,-1,-1,-1,-1,-1,-1,-1,-1,-1,-1,-1,-1,-1,-1,-1,-1,-1,-1,-1,-1,-1,-1,-1,-1,-1,-1,-1,-1,-1,-1,-1,-1,-1,-1,-1,-1,-1,-1],"split_conditions":[1E0,1.6E1,1.101E1,3.7E1,1E0,2.4979E4,1.102E1,1.3E1,1.29398E5,1E0,3.7E1,1.3E-1,2.5E-1,4E0,1.244E1,7.2324E4,2.8E3,1E0,1.80898E5,1E0,3.2E1,5.9962E4,6.4484E4,-2.5007712E-2,2.0951678E-1,8.9422E4,1E0,6.77E2,1E0,2.9E-1,1.461E1,7.1342E4,7.4331E4,5.29573E-1,6E-2,3.9E1,6.29E2,1E0,2.0308E4,5.9592E4,1E0,5.9012E4,6E0,3E0,1.27109E5,6.660485E-2,2.4074396E-1,-2.921108E-1,2E0,-2.0634383E-1,2.5E1,6.42E2,-3.0625658E-2,1.0225E4,2.7E1,1.1E-1,1.4956519E-1,4.8873E4,3.133E4,4.6262527E-3,4.7312704E-1,-2.3813434E-1,2.3234824E-3,-2.7528277E-1,1.3826853E-1,-1.3131794E-1,-2.6864393E-2,1.8797737E-2,-2.6597667E-1,3.166612E-1,-1.3126844E-1,-2.9197982E-1,9.2007086E-2,1.4209715E-1,2.9059827E-1,-1.9691128E-1,1.0022031E-1,1.3411334E-1,-1.988599E-1,-1.2034402E-1,2.5985104E-1,2.486497E-1,-1.0188294E-1,-3.0853903E-1,5.100792E-2,1.4191535E-1,-2.3032595E-1,-6.7016356E-2,1.8318424E-1,1.9770119E-1,6.1745036E-1,-1.822867E-2,3.9050525E-1,-2.6462916E-1,-3.664797E-2,-7.2882175E-2,-2.2946383E-1,1.5630195E-1,-6.6757896E-3,2.2250272E-1,-8.346079E-2],"split_indices":[21,5,5,0,20,2,5,7,2,17,0,6,6,7,5,2,4,18,2,18,0,2,2,0,0,2,16,8,1,6,5,2,2,0,6,0,8,19,4,2,16,2,7,3,2,0,0,0,3,0,0,8,0,4,0,6,0,2,2,0,0,0,0,0,0,0,0,0,0,0,0,0,0,0,0,0,0,0,0,0,0,0,0,0,0,0,0,0,0,0,0,0,0,0,0,0,0,0,0,0,0],"split_type":[0,0,0,0,0,0,0,0,0,0,0,0,0,0,0,0,0,0,0,0,0,0,0,0,0,0,0,0,0,0,0,0,0,0,0,0,0,0,0,0,0,0,0,0,0,0,0,0,0,0,0,0,0,0,0,0,0,0,0,0,0,0,0,0,0,0,0,0,0,0,0,0,0,0,0,0,0,0,0,0,0,0,0,0,0,0,0,0,0,0,0,0,0,0,0,0,0,0,0,0,0],"sum_hessian":[1.9983813E3,1.7954048E3,2.0297658E2,1.6720293E3,1.23375374E2,2.5425013E1,1.7755156E2,1.529145E3,1.4288428E2,9.814087E1,2.5234503E1,2.5679805E0,2.2857033E1,1.665651E1,1.6089505E2,1.5076411E3,2.1504015E1,1.2081309E2,2.2071196E1,6.703294E1,3.1107931E1,2.2723442E1,2.5110612E0,1.1453538E0,1.4226267E0,1.7783873E1,5.0731597E0,5.5814667E0,1.1075042E1,3.0413656E1,1.304814E2,9.532148E2,5.544263E2,3.030993E0,1.8473022E1,1.0253205E2,1.8281036E1,1.3108627E1,8.962567E0,4.7497353E1,1.953559E1,2.3943344E1,7.1645865E0,6.346488E0,1.6376953E1,1.2140565E0,1.2970047E0,1.369975E1,4.084122E0,1.7801522E0,3.2930074E0,4.5427876E0,1.038679E0,4.2454925E0,6.8295493E0,2.904378E1,1.3698766E0,6.562519E1,6.485621E1,9.338587E2,1.9356112E1,4.414684E1,5.1027942E2,1.4013536E0,1.7071669E1,3.1057951E1,7.14741E1,4.581387E0,1.3699648E1,9.877994E0,3.2306335E0,5.1965647E0,3.7660031E0,1.6399359E1,3.1097994E1,1.05388155E1,8.996773E0,7.4453783E0,1.6497967E1,1.0404674E0,6.1241193E0,2.7458055E0,3.6006825E0,1.15706835E1,4.80627E0,1.0208182E0,3.063304E0,1.2985034E0,1.9945039E0,3.0292258E0,1.5135618E0,2.7262845E0,1.519208E0,2.0362773E0,4.793272E0,1.1236557E1,1.7807222E1,2.1383854E1,4.424134E1,3.12453E0,6.1731678E1],"tree_param":{"num_deleted":"0","num_feature":"22","num_nodes":"101","size_leaf_vector":"1"}},{"base_weights":[-1.1440157E-3,3.8197665E-3,-4.1578528E-1,5.885686E-3,-2.890674E-1,-5.052844E-1,3.2342023E-1,-2.4995324E-1,1.304008E-2,-7.30825E-1,-1.5774378E-1,1.9010697E-1,-4.1968912E-2,-5.3025324E-2,-5.6999916E-1,2.597066E-1,3.7422222E-3,-8.348906E-1,6.6742696E-2,4.889042E-1,-4.8763955E-1,7.087365E-2,-2.4896401E-1,-6.797384E-1,1.3339423E-2,8.810966E-2,5.7695544E-1,5.1356887E-4,6.1116374E-1,-1.4003275E-2,-9.1061836E-1,-5.6959763E-2,2.7128285E-1,1.6188578E-1,-7.6277333E-1,-7.82895E-2,1.1537685E-1,-2.9189324E-1,-8.411567E-2,-1.4843762E-1,1.6171092E-1,-3.2239456E-2,2.1492065E-1,2.3335533E-1,-2.485599E-2,-2.2880256E-3,6.809398E-2,4.7876212E-1,-6.309847E-2,-1.14603855E-1,-2.9548037E-1,-2.615985E-1,-7.047778E-2],"categories":[],"categories_nodes":[],"categories_segments":[],"categories_sizes":[],"default_left":[0,0,0,0,0,0,0,0,0,0,0,0,0,0,0,0,0,0,0,0,0,0,0,0,0,0,0,0,0,0,0,0,0,0,0,0,0,0,0,0,0,0,0,0,0,0,0,0,0,0,0,0,0],"id":26,"left_children":[1,3,5,7,-1,9,11,13,15,17,19,-1,-1,21,23,25,27,29,-1,31,33,35,-1,37,39,41,43,45,47,-1,49,-1,-1,-1,51,-1,-1,-1,-1,-1,-1,-1,-1,-1,-1,-1,-1,-1,-1,-1,-1,-1,-1],"loss_changes":[4.08073E0,3.9216874E0,1.7151217E0,3.5839663E0,0E0,1.5552168E0,5.404347E-1,3.3270078E0,4.3658066E0,1.440598E0,2.2996988E0,0E0,0E0,3.338986E0,1.3014255E0,3.7135072E0,3.6000829E0,6.507597E-1,0E0,1.2328004E0,2.361506E0,3.2560258E0,0E0,1.7192798E0,1.3825622E0,5.736205E0,3.2579613E0,3.3701E0,8.186961E0,0E0,3.7890434E-2,0E0,0E0,0E0,1.3275409E-1,0E0,0E0,0E0,0E0,0E0,0E0,0E0,0E0,0E0,0E0,0E0,0E0,0E0,0E0,0E0,0E0,0E0,0E0],"parents":[2147483647,0,0,1,1,2,2,3,3,5,5,6,6,7,7,8,8,9,9,10,10,13,13,14,14,15,15,16,16,17,17,19,19,20,20,21,21,23,23,24,24,25,25,26,26,27,27,28,28,30,30,34,34],"right_children":[2,4,6,8,-1,10,12,14,16,18,20,-1,-1,22,24,26,28,30,-1,32,34,36,-1,38,40,42,44,46,48,-1,50,-1,-1,-1,52,-1,-1,-1,-1,-1,-1,-1,-1,-1,-1,-1,-1,-1,-1,-1,-1,-1,-1],"split_conditions":[1E0,4.3E1,3.2E-1,6.54E0,-2.890674E-1,6.51E2,6.28E2,6.03E0,5.5E2,1.727E1,6.67E2,1.9010697E-1,-4.1968912E-2,9.5079E4,1.4E4,5.4E2,7.33E2,8.03E0,6.6742696E-2,1.399E1,2.4979E4,2.6E1,-2.4896401E-1,1E0,2.6E1,1.361E1,1E0,1.689E1,9E-2,-1.4003275E-2,2.4143E4,-5.6959763E-2,2.7128285E-1,1.6188578E-1,1E0,-7.82895E-2,1.1537685E-1,-2.9189324E-1,-8.411567E-2,-1.4843762E-1,1.6171092E-1,-3.2239456E-2,2.1492065E-1,2.3335533E-1,-2.485599E-2,-2.2880256E-3,6.809398E-2,4.7876212E-1,-6.309847E-2,-1.14603855E-1,-2.9548037E-1,-2.615985E-1,-7.047778E-2],"split_indices":[15,3,6,5,0,8,8,5,8,5,8,0,0,2,4,8,8,5,0,5,2,0,0,16,0,5,10,5,6,0,2,0,0,0,13,0,0,0,0,0,0,0,0,0,0,0,0,0,0,0,0,0,0],"split_type":[0,0,0,0,0,0,0,0,0,0,0,0,0,0,0,0,0,0,0,0,0,0,0,0,0,0,0,0,0,0,0,0,0,0,0,0,0,0,0,0,0,0,0,0,0,0,0,0,0,0,0,0,0],"sum_hessian":[1.9809083E3,1.958454E3,2.2454391E1,1.9552722E3,3.1817386E0,2.0311615E1,2.1427763E0,5.2267445E1,1.9030048E3,1.1649009E1,8.662607E0,1.0631142E0,1.0796621E0,3.3079147E1,1.91883E1,6.8147995E1,1.8348568E3,1.0614504E1,1.0345049E0,2.7635722E0,5.899035E0,2.9312866E1,3.766281E0,1.6011007E1,3.177291E0,4.505558E1,2.3092415E1,1.826151E3,8.705772E0,1.072085E0,9.5424185E0,1.2552451E0,1.5083271E0,1.0431098E0,4.8559256E0,1.4326694E1,1.4986173E1,8.403819E0,7.6071887E0,1.6455314E0,1.5317595E0,3.499219E1,1.0063391E1,1.7565304E1,5.5271096E0,1.7637205E3,6.243052E1,3.5308013E0,5.174971E0,1.9330633E0,7.6093554E0,3.483202E0,1.3727235E0],"tree_param":{"num_deleted":"0","num_feature":"22","num_nodes":"53","size_leaf_vector":"1"}},{"base_weights":[-1.2055706E-3,1.0519461E-3,-2.4500152E-1,2.7228463E-1,-9.7029156E-4,1.8985892E-2,-8.2844E-2,7.1736015E-3,5.3477633E-1,-6.423091E-1,-5.5662926E-2,2.2401825E-2,-1.6882807E-1,6.6135633E-1,-8.128027E-1,-9.197035E-1,2.509477E-1,-1.2025083E-1,6.7813754E-2,5.066957E-3,1.6963556E-1,-7.198333E-2,1.3634637E-1,3.1731603E-1,6.859186E-2,-6.05178E-2,-3.3798826E-1,-2.9970616E-1,-4.943231E-2,1.9950415E-1,-1.8166834E-1,6.528407E-2,-4.9428314E-2,4.1580117E-1,1.1878382E-2],"categories":[],"categories_nodes":[],"categories_segments":[],"categories_sizes":[],"default_left":[0,0,0,0,0,0,0,0,0,0,0,0,0,0,0,0,0,0,0,0,0,0,0,0,0,0,0,0,0,0,0,0,0,0,0],"id":27,"left_children":[1,3,-1,-1,5,7,9,11,13,15,17,19,21,23,25,27,29,31,33,-1,-1,-1,-1,-1,-1,-1,-1,-1,-1,-1,-1,-1,-1,-1,-1],"loss_changes":[3.6332114E0,3.6099994E0,0E0,0E0,3.2126138E0,9.62833E0,5.8239536E0,4.1488686E0,6.572816E0,4.631139E0,2.947572E0,4.2537355E0,5.5735664E0,5.4000654E0,4.4137907E-1,6.5961933E-1,2.1737285E0,3.6804702E0,4.677502E0,0E0,0E0,0E0,0E0,0E0,0E0,0E0,0E0,0E0,0E0,0E0,0E0,0E0,0E0,0E0,0E0],"parents":[2147483647,0,0,1,1,4,4,5,5,6,6,7,7,8,8,9,9,10,10,11,11,12,12,13,13,14,14,15,15,16,16,17,17,18,18],"right_children":[2,4,-1,-1,6,8,10,12,14,16,18,20,22,24,26,28,30,32,34,-1,-1,-1,-1,-1,-1,-1,-1,-1,-1,-1,-1,-1,-1,-1,-1],"split_conditions":[1E0,5.01E2,-2.4500152E-1,2.7228463E-1,9.6309E4,9.4211E4,9.7275E4,3.7E1,1.645E1,1E0,1.975E4,1.4E1,1.558E1,1.161E4,1E0,6.93E2,1.0017E4,4.4E3,2E4,5.066957E-3,1.6963556E-1,-7.198333E-2,1.3634637E-1,3.1731603E-1,6.859186E-2,-6.05178E-2,-3.3798826E-1,-2.9970616E-1,-4.943231E-2,1.9950415E-1,-1.8166834E-1,6.528407E-2,-4.9428314E-2,4.1580117E-1,1.1878382E-2],"split_indices":[9,8,0,0,2,2,2,0,5,20,4,7,5,4,17,8,4,4,4,0,0,0,0,0,0,0,0,0,0,0,0,0,0,0,0],"split_type":[0,0,0,0,0,0,0,0,0,0,0,0,0,0,0,0,0,0,0,0,0,0,0,0,0,0,0,0,0,0,0,0,0,0,0],"sum_hessian":[1.9721088E3,1.9676603E3,4.448513E0,3.3827121E0,1.9642776E3,1.5799445E3,3.843331E2,1.545563E3,3.438155E1,1.6758749E1,3.6757434E2,1.4232882E3,1.2227469E2,3.1894846E1,2.486703E0,1.2765049E1,3.9936998E0,2.4135371E2,1.26220634E2,1.4100078E3,1.3280504E1,1.1030469E2,1.1970005E1,1.5892828E1,1.6002018E1,1.4011655E0,1.0855376E0,1.1258808E1,1.5062413E0,2.8429132E0,1.1507866E0,2.7642006E1,2.1371172E2,1.6369871E0,1.2458365E2],"tree_param":{"num_deleted":"0","num_feature":"22","num_nodes":"35","size_leaf_vector":"1"}},{"base_weights":[-1.0140905E-3,3.822115E-2,-4.0113144E-2,-2.544598E-1,5.2523512E-2,-5.269248E-3,-1.3990127E-1,-7.0932746E-2,-7.565969E-1,1.3129655E-1,4.5670797E-3,-1.67646E-1,2.1027604E-2,5.527879E-1,-1.7610344E-1,-2.148856E-1,4.8266947E-1,-1.739262E-1,-2.83266E-1,3.133605E-1,1.9840138E-2,-1.8212913E-1,6.8474546E-2,-3.419231E-1,8.642889E-2,1.5937714E-1,-3.3590224E-2,-3.2668835E-1,8.251275E-1,-1.11554265E-1,-5.716573E-1,7.049366E-1,-3.2162E-1,-5.3071417E-2,4.5009986E-1,-2.2055674E-1,1.5730253E-1,6.660962E-1,1.6513859E-1,-1.15801975E-1,1.4847687E-1,-2.6208004E-1,9.5503443E-1,-4.9539492E-1,8.774094E-2,-4.31126E-1,3.423028E-1,-1.0701573E0,2.1547014E-1,2.4824218E-1,-1.58428E-1,-5.393843E-2,2.8983408E-1,